{"learner":{"attributes":{"scikit_learn":"{\"_estimator_type\": \"classifier\"}"},"feature_names":["age","gender","ap_hi","ap_lo","cholesterol","gluc","smoke","alco","active","bmi"],"feature_types":["int","int","float","float","int","int","int","int","int","float"],"gradient_booster":{"model":{"cats":{"enc":[],"feature_segments":[],"sorted_idx":[]},"gbtree_model_param":{"num_parallel_tree":"1","num_trees":"701"},"iteration_indptr":[0,1,2,3,4,5,6,7,8,9,10,11,12,13,14,15,16,17,18,19,20,21,22,23,24,25,26,27,28,29,30,31,32,33,34,35,36,37,38,39,40,41,42,43,44,45,46,47,48,49,50,51,52,53,54,55,56,57,58,59,60,61,62,63,64,65,66,67,68,69,70,71,72,73,74,75,76,77,78,79,80,81,82,83,84,85,86,87,88,89,90,91,92,93,94,95,96,97,98,99,100,101,102,103,104,105,106,107,108,109,110,111,112,113,114,115,116,117,118,119,120,121,122,123,124,125,126,127,128,129,130,131,132,133,134,135,136,137,138,139,140,141,142,143,144,145,146,147,148,149,150,151,152,153,154,155,156,157,158,159,160,161,162,163,164,165,166,167,168,169,170,171,172,173,174,175,176,177,178,179,180,181,182,183,184,185,186,187,188,189,190,191,192,193,194,195,196,197,198,199,200,201,202,203,204,205,206,207,208,209,210,211,212,213,214,215,216,217,218,219,220,221,222,223,224,225,226,227,228,229,230,231,232,233,234,235,236,237,238,239,240,241,242,243,244,245,246,247,248,249,250,251,252,253,254,255,256,257,258,259,260,261,262,263,264,265,266,267,268,269,270,271,272,273,274,275,276,277,278,279,280,281,282,283,284,285,286,287,288,289,290,291,292,293,294,295,296,297,298,299,300,301,302,303,304,305,306,307,308,309,310,311,312,313,314,315,316,317,318,319,320,321,322,323,324,325,326,327,328,329,330,331,332,333,334,335,336,337,338,339,340,341,342,343,344,345,346,347,348,349,350,351,352,353,354,355,356,357,358,359,360,361,362,363,364,365,366,367,368,369,370,371,372,373,374,375,376,377,378,379,380,381,382,383,384,385,386,387,388,389,390,391,392,393,394,395,396,397,398,399,400,401,402,403,404,405,406,407,408,409,410,411,412,413,414,415,416,417,418,419,420,421,422,423,424,425,426,427,428,429,430,431,432,433,434,435,436,437,438,439,440,441,442,443,444,445,446,447,448,449,450,451,452,453,454,455,456,457,458,459,460,461,462,463,464,465,466,467,468,469,470,471,472,473,474,475,476,477,478,479,480,481,482,483,484,485,486,487,488,489,490,491,492,493,494,495,496,497,498,499,500,501,502,503,504,505,506,507,508,509,510,511,512,513,514,515,516,517,518,519,520,521,522,523,524,525,526,527,528,529,530,531,532,533,534,535,536,537,538,539,540,541,542,543,544,545,546,547,548,549,550,551,552,553,554,555,556,557,558,559,560,561,562,563,564,565,566,567,568,569,570,571,572,573,574,575,576,577,578,579,580,581,582,583,584,585,586,587,588,589,590,591,592,593,594,595,596,597,598,599,600,601,602,603,604,605,606,607,608,609,610,611,612,613,614,615,616,617,618,619,620,621,622,623,624,625,626,627,628,629,630,631,632,633,634,635,636,637,638,639,640,641,642,643,644,645,646,647,648,649,650,651,652,653,654,655,656,657,658,659,660,661,662,663,664,665,666,667,668,669,670,671,672,673,674,675,676,677,678,679,680,681,682,683,684,685,686,687,688,689,690,691,692,693,694,695,696,697,698,699,700,701],"tree_info":[0,0,0,0,0,0,0,0,0,0,0,0,0,0,0,0,0,0,0,0,0,0,0,0,0,0,0,0,0,0,0,0,0,0,0,0,0,0,0,0,0,0,0,0,0,0,0,0,0,0,0,0,0,0,0,0,0,0,0,0,0,0,0,0,0,0,0,0,0,0,0,0,0,0,0,0,0,0,0,0,0,0,0,0,0,0,0,0,0,0,0,0,0,0,0,0,0,0,0,0,0,0,0,0,0,0,0,0,0,0,0,0,0,0,0,0,0,0,0,0,0,0,0,0,0,0,0,0,0,0,0,0,0,0,0,0,0,0,0,0,0,0,0,0,0,0,0,0,0,0,0,0,0,0,0,0,0,0,0,0,0,0,0,0,0,0,0,0,0,0,0,0,0,0,0,0,0,0,0,0,0,0,0,0,0,0,0,0,0,0,0,0,0,0,0,0,0,0,0,0,0,0,0,0,0,0,0,0,0,0,0,0,0,0,0,0,0,0,0,0,0,0,0,0,0,0,0,0,0,0,0,0,0,0,0,0,0,0,0,0,0,0,0,0,0,0,0,0,0,0,0,0,0,0,0,0,0,0,0,0,0,0,0,0,0,0,0,0,0,0,0,0,0,0,0,0,0,0,0,0,0,0,0,0,0,0,0,0,0,0,0,0,0,0,0,0,0,0,0,0,0,0,0,0,0,0,0,0,0,0,0,0,0,0,0,0,0,0,0,0,0,0,0,0,0,0,0,0,0,0,0,0,0,0,0,0,0,0,0,0,0,0,0,0,0,0,0,0,0,0,0,0,0,0,0,0,0,0,0,0,0,0,0,0,0,0,0,0,0,0,0,0,0,0,0,0,0,0,0,0,0,0,0,0,0,0,0,0,0,0,0,0,0,0,0,0,0,0,0,0,0,0,0,0,0,0,0,0,0,0,0,0,0,0,0,0,0,0,0,0,0,0,0,0,0,0,0,0,0,0,0,0,0,0,0,0,0,0,0,0,0,0,0,0,0,0,0,0,0,0,0,0,0,0,0,0,0,0,0,0,0,0,0,0,0,0,0,0,0,0,0,0,0,0,0,0,0,0,0,0,0,0,0,0,0,0,0,0,0,0,0,0,0,0,0,0,0,0,0,0,0,0,0,0,0,0,0,0,0,0,0,0,0,0,0,0,0,0,0,0,0,0,0,0,0,0,0,0,0,0,0,0,0,0,0,0,0,0,0,0,0,0,0,0,0,0,0,0,0,0,0,0,0,0,0,0,0,0,0,0,0,0,0,0,0,0,0,0,0,0,0,0,0,0,0,0,0,0,0,0,0,0,0,0,0,0,0,0,0,0,0,0,0,0,0,0,0,0,0,0,0,0,0,0,0,0,0,0,0,0,0,0,0,0,0,0,0,0,0,0,0,0,0,0,0,0,0,0,0,0,0,0,0,0,0,0,0,0,0,0,0,0,0,0,0,0,0,0,0,0,0,0,0,0,0,0,0,0,0,0,0,0,0,0,0,0,0,0,0,0,0,0,0,0,0,0,0,0,0,0,0,0,0,0,0,0,0,0,0,0,0,0,0,0,0,0,0,0,0,0,0],"trees":[{"base_weights":[6.9461676E-5,-1.1368504E0,1.5777903E0,-1.3112034E0,1.0664734E0,4.0574932E-1,2.031007E0,-1.558658E0,-2.7827883E-1,1.661815E0,-1.2855464E0,-8.1869797E-4,1.9533088E0,1.8569044E0,3.170752E-1,-1.0077775E0,-1.7049236E0,1.0006301E0,-5.066674E-1,5.6511676E-1,3.2141036E-1,-2.0318572E-1,1.2608264E-1,-5.9032196E-1,9.373266E-1,3.2142118E-1,-2.0035242E-1,1.608745E0,2.0114913E0,-1.6390291E0,-4.0697503E-1,-1.7363241E0,-7.6982576E-1,-2.84945E-1,3.159506E-1,-8.9168787E-1,-9.4502985E-2,2.3994797E-1,-2.4228087E-1,6.2213147E-1,-1.1085327E0,1.8292363E0,7.267975E-1,3.0642885E-1,1.3626251E0,2.5761643E-1,3.06312E-1,-2.5350907E-1,-4.6400738E-1,-9.1818726E-1,2.6207704E-2,-1.7666662E0,-1.1481318E0,-2.3810616E-1,-3.377904E-1,-8.1877446E-1,-0E0,-9.391356E-1,4.6183267E-1,3.7697237E-2,-1.4301949E0,-1.2269095E-1,6.977189E-1,-1.2674928E0,5.104596E-1,-0E0,2.805257E-1,4.221531E-1,1.0326906E0,1.0046446E0,2.8399047E-1,-1.3285154E-1,-0E0,-9.620851E-1,7.487662E-2,1.20649196E-1,-1.1508515E0,-2.6082945E-1,-9.5230037E-1,-2.4365023E-1,-5.427734E-1,-3.779311E-1,2.6595495E-3,-1.4808042E-1,-0E0,-4.6227608E-2,2.272075E-2,-8.621185E-1,-2.4349912E-1,-0E0,1.2658836E-1,-9.327259E-2,5.4681724E-1,-2.4614477E-1,3.7412267E-2,-5.463522E-2,2.072349E-2,5.1433206E-1,9.75365E-1,-1.359592E0,7.1315E-2,-0E0,6.6636E-1,4.2798374E-2,5.334968E-1,-0E0,1.546071E-1,7.9372114E-1,3.0287427E-1,-1.4579114E-1,-0E0,-2.6698573E-3,9.868862E-2,-2.1584764E-1,1.9575384E-2,-2.3802981E-1,1.411347E-1,-1.4893435E-1,2.5993199E-4,-4.2540953E-2,-1.54713E-1,-1.6611263E-1,-1.0348809E-1,-2.5688859E-2,6.651547E-2,1.3014889E-2,9.1350205E-2,2.728844E-2,9.206474E-2,1.5486163E-1,-0E0,-2.1251099E-1,-1.10721916E-1,-2.688125E-2,4.470333E-2,-0E0,1.4684667E-1,1.0065555E-1,-1.3972988E-3,8.545796E-2,6.191036E-3,2.1550941E-1,9.605512E-2],"categories":[],"categories_nodes":[],"categories_segments":[],"categories_sizes":[],"default_left":[0,0,0,0,0,0,0,0,0,0,0,0,0,0,0,0,0,0,0,0,0,0,0,0,0,0,0,0,0,0,0,0,0,0,0,0,0,0,0,0,0,0,0,0,0,0,0,0,0,0,0,0,0,0,0,0,0,0,0,0,0,0,0,0,0,0,0,0,0,0,0,0,0,0,0,0,0,0,0,0,0,0,0,0,0,0,0,0,0,0,0,0,0,0,0,0,0,0,0,0,0,0,0,0,0,0,0,0,0,0,0,0,0,0,0,0,0,0,0,0,0,0,0,0,0,0,0,0,0,0,0,0,0,0,0,0,0,0,0,0,0,0,0],"id":0,"left_children":[1,3,5,7,9,11,13,15,17,19,21,23,25,27,-1,29,31,33,35,37,-1,-1,-1,39,41,-1,-1,43,45,47,49,51,53,55,-1,57,59,-1,-1,61,63,65,67,-1,69,-1,-1,-1,71,73,75,77,79,-1,81,83,85,87,89,91,93,95,97,99,101,-1,-1,103,105,107,-1,-1,-1,109,-1,111,113,-1,115,-1,117,119,-1,-1,-1,-1,-1,121,-1,-1,-1,123,125,-1,-1,-1,-1,127,129,131,133,-1,135,137,139,-1,-1,141,-1,-1,-1,-1,-1,-1,-1,-1,-1,-1,-1,-1,-1,-1,-1,-1,-1,-1,-1,-1,-1,-1,-1,-1,-1,-1,-1,-1,-1,-1,-1,-1,-1,-1,-1],"loss_changes":[1.70362E4,2.1223247E3,2.1074014E3,1.3034307E3,5.698617E2,7.0353296E2,5.1131836E1,3.2496094E2,2.893275E2,1.8029944E2,1.9674377E1,4.8721396E2,1.8674548E2,3.613672E1,0E0,3.256289E2,8.903125E1,2.2540419E2,1.3183618E2,2.5899365E2,0E0,0E0,0E0,3.430005E2,5.705139E1,0E0,0E0,4.6593628E1,2.284912E0,3.8064087E1,1.0134359E2,4.79541E1,3.5965202E1,1.0356438E1,0E0,2.9310822E1,7.5401184E1,0E0,0E0,1.0363522E1,1.0059085E2,7.072525E0,2.2547852E1,0E0,5.8370544E1,0E0,0E0,0E0,7.4063206E0,1.45503845E1,2.512274E1,1.5463867E1,4.4398254E1,0E0,1.7970858E0,4.0402374E0,2.4831352E0,1.660559E1,2.8778214E0,2.5891865E1,1.9210358E1,1.411702E0,4.1039276E0,4.5704956E1,3.1465502E0,0E0,0E0,4.958317E0,3.4469757E0,3.805461E1,0E0,0E0,0E0,6.602356E0,0E0,1.867983E1,9.647619E0,0E0,5.3281322E1,0E0,2.1817379E1,1.3736153E0,0E0,0E0,0E0,0E0,0E0,1.1735474E1,0E0,0E0,0E0,1.2736574E1,1.2943382E0,0E0,0E0,0E0,0E0,1.8612995E0,3.1659813E0,1.17439575E1,1.6275684E0,0E0,5.1003017E0,2.6093473E0,1.3154755E0,0E0,0E0,1.105928E1,0E0,0E0,0E0,0E0,0E0,0E0,0E0,0E0,0E0,0E0,0E0,0E0,0E0,0E0,0E0,0E0,0E0,0E0,0E0,0E0,0E0,0E0,0E0,0E0,0E0,0E0,0E0,0E0,0E0,0E0,0E0,0E0,0E0,0E0,0E0],"parents":[2147483647,0,0,1,1,2,2,3,3,4,4,5,5,6,6,7,7,8,8,9,9,10,10,11,11,12,12,13,13,15,15,16,16,17,17,18,18,19,19,23,23,24,24,27,27,28,28,29,29,30,30,31,31,32,32,33,33,35,35,36,36,39,39,40,40,41,41,42,42,44,44,48,48,49,49,50,50,51,51,52,52,54,54,55,55,56,56,57,57,58,58,59,59,60,60,61,61,62,62,63,63,64,64,67,67,68,68,69,69,73,73,75,75,76,76,78,78,80,80,81,81,87,87,91,91,92,92,97,97,98,98,99,99,100,100,102,102,103,103,104,104,107,107],"right_children":[2,4,6,8,10,12,14,16,18,20,22,24,26,28,-1,30,32,34,36,38,-1,-1,-1,40,42,-1,-1,44,46,48,50,52,54,56,-1,58,60,-1,-1,62,64,66,68,-1,70,-1,-1,-1,72,74,76,78,80,-1,82,84,86,88,90,92,94,96,98,100,102,-1,-1,104,106,108,-1,-1,-1,110,-1,112,114,-1,116,-1,118,120,-1,-1,-1,-1,-1,122,-1,-1,-1,124,126,-1,-1,-1,-1,128,130,132,134,-1,136,138,140,-1,-1,142,-1,-1,-1,-1,-1,-1,-1,-1,-1,-1,-1,-1,-1,-1,-1,-1,-1,-1,-1,-1,-1,-1,-1,-1,-1,-1,-1,-1,-1,-1,-1,-1,-1,-1,-1],"split_conditions":[1.3E2,2E0,1.35E2,3.002E1,1.22E2,2E0,2.917E1,1E0,1E0,1.2E2,3.351E1,2.994E1,1.31E2,1.45E2,3.170752E-1,2.501E1,2E0,5E1,5.3E1,1.16E2,3.2141036E-1,-2.0318572E-1,1.2608264E-1,1E0,1E0,3.2142118E-1,-2.0035242E-1,1E0,5E1,1E0,5.2E1,1E0,5.1E1,1.11E2,3.159506E-1,1.25E2,1E0,2.3994797E-1,-2.4228087E-1,2.197E1,1E0,4.2E1,5.5E1,3.0642885E-1,2E0,2.5761643E-1,3.06312E-1,-2.5350907E-1,5.3E1,1.21E2,1E0,1.25E2,2.526E1,-2.3810616E-1,2.94E1,1E0,4.4E1,1E0,1E0,6.1E1,1.21E2,6E1,5.7E1,2E0,4.4E1,-0E0,2.805257E-1,4.5E1,3.007E1,1E0,2.8399047E-1,-1.3285154E-1,-0E0,2E0,7.487662E-2,6.1E1,1.21E2,-2.6082945E-1,1E0,-2.4365023E-1,5E1,1E0,2.6595495E-3,-1.4808042E-1,-0E0,-4.6227608E-2,2.272075E-2,4.5E1,-2.4349912E-1,-0E0,1.2658836E-1,3.728E1,1.19E2,-2.4614477E-1,3.7412267E-2,-5.463522E-2,2.072349E-2,2.454E1,1E0,1E0,5.4E1,-0E0,2.515E1,3.045E1,1E0,-0E0,1.546071E-1,1.36E2,3.0287427E-1,-1.4579114E-1,-0E0,-2.6698573E-3,9.868862E-2,-2.1584764E-1,1.9575384E-2,-2.3802981E-1,1.411347E-1,-1.4893435E-1,2.5993199E-4,-4.2540953E-2,-1.54713E-1,-1.6611263E-1,-1.0348809E-1,-2.5688859E-2,6.651547E-2,1.3014889E-2,9.1350205E-2,2.728844E-2,9.206474E-2,1.5486163E-1,-0E0,-2.1251099E-1,-1.10721916E-1,-2.688125E-2,4.470333E-2,-0E0,1.4684667E-1,1.0065555E-1,-1.3972988E-3,8.545796E-2,6.191036E-3,2.1550941E-1,9.605512E-2],"split_indices":[2,4,2,9,2,4,9,8,8,2,9,9,2,2,0,9,5,0,0,2,0,0,0,8,8,0,0,8,0,5,0,7,0,2,0,2,4,0,0,9,7,0,0,0,4,0,0,0,0,2,4,2,9,0,9,5,0,4,4,0,2,0,0,5,0,0,0,0,9,7,0,0,0,5,0,0,2,0,4,0,0,4,0,0,0,0,0,0,0,0,0,9,2,0,0,0,0,9,4,4,0,0,9,9,4,0,0,2,0,0,0,0,0,0,0,0,0,0,0,0,0,0,0,0,0,0,0,0,0,0,0,0,0,0,0,0,0,0,0,0,0,0,0],"split_type":[0,0,0,0,0,0,0,0,0,0,0,0,0,0,0,0,0,0,0,0,0,0,0,0,0,0,0,0,0,0,0,0,0,0,0,0,0,0,0,0,0,0,0,0,0,0,0,0,0,0,0,0,0,0,0,0,0,0,0,0,0,0,0,0,0,0,0,0,0,0,0,0,0,0,0,0,0,0,0,0,0,0,0,0,0,0,0,0,0,0,0,0,0,0,0,0,0,0,0,0,0,0,0,0,0,0,0,0,0,0,0,0,0,0,0,0,0,0,0,0,0,0,0,0,0,0,0,0,0,0,0,0,0,0,0,0,0,0,0,0,0,0,0],"sum_hessian":[9.494619E3,5.517656E3,3.9769636E3,5.114336E3,4.0332004E2,1.1108643E3,2.866099E3,4.123873E3,9.904628E2,3.228047E2,8.0515366E1,8.7972327E2,2.3114104E2,1.2292838E3,1.6368154E3,8.700614E2,3.2538118E3,1.4814827E2,8.423146E2,1.0677576E2,2.1602892E2,7.8285706E1,2.2296562E0,5.4180646E2,3.3791678E2,2.1677214E2,1.4368896E1,4.8210123E2,7.4718256E2,4.2165277E2,4.4840866E2,3.145054E3,1.08757675E2,6.961482E1,7.853345E1,4.3230557E2,4.10009E2,7.2835434E1,3.3940323E1,1.6103073E2,3.8077573E2,6.094394E1,2.7697284E2,1.5805786E2,3.2404337E2,1.8010667E2,5.670759E2,3.904376E2,3.1215187E1,2.0711029E2,2.4129836E2,2.985262E3,1.5979204E2,3.3940323E1,7.481735E1,2.2792042E1,4.682278E1,4.1942313E2,1.2882459E1,3.7284808E2,3.716094E1,1.2386979E1,1.4864375E2,3.4807413E2,3.2701626E1,3.2206147E0,5.7723324E1,1.4344122E2,1.3353163E2,2.033942E2,1.2064918E2,1.6350813E1,1.4864375E1,2.0265099E2,4.4593124E0,2.259385E2,1.5359854E1,2.947358E3,3.7904156E1,8.373598E1,7.605605E1,7.209222E1,2.7251353E0,1.858047E1,4.211573E0,1.6103073E1,3.0719707E1,3.8374863E2,3.56745E1,6.1934896E0,6.6889687E0,2.9431464E2,7.853345E1,3.3444843E1,3.7160938E0,9.909583E0,2.4773958E0,9.587522E1,5.276853E1,3.2701624E2,2.1057865E1,6.9367085E0,2.5764917E1,3.6913197E1,1.0652802E2,1.9819167E0,1.3154971E2,1.7292223E2,3.047197E1,1.9695297E2,5.6980104E0,1.7862024E2,4.731826E1,1.3377937E1,1.9819167E0,2.898553E1,8.918625E0,4.211573E1,3.3940323E1,6.7880646E1,4.211573E0,1.3427486E2,2.4947375E2,2.598788E2,3.4435802E1,1.5112115E1,6.3421333E1,2.972875E1,6.614647E1,4.781374E1,4.9547915E0,2.8143216E2,4.5584084E1,6.1934896E0,1.4864375E1,9.909583E0,1.5855333E1,4.4593124E0,3.2453884E1,9.3150085E1,1.3377937E1,2.5269438E1,1.4765279E2],"tree_param":{"num_deleted":"0","num_feature":"10","num_nodes":"143","size_leaf_vector":"1"}},{"base_weights":[-9.21294E-4,-1.0019618E0,1.3433275E0,-1.2405028E0,-7.26783E-2,3.501155E-1,1.7233269E0,-7.67113E-1,-1.3638825E0,9.876111E-1,-2.704185E-1,-9.1324136E-2,1.0119262E0,1.3008534E0,1.8123461E0,-1.329036E0,-2.501738E-1,-1.4141576E0,-9.0722966E-1,-1.4554341E-1,2.7095598E-1,-6.0296303E-1,1.8740289E-1,6.698143E-1,-3.810329E-1,7.180079E-1,1.5008006E0,1.0088508E0,1.6961757E0,1.6510866E0,2.7331114E-1,-1.4114827E0,7.1555287E-1,-7.4309003E-1,1.365233E-1,-1.5019016E0,-1.2315762E0,-1.4058876E0,-3.3463305E-1,-2.5299662E-1,1.7127894E-1,-9.724795E-1,-4.1441053E-1,1.2787654E-1,2.5837028E-1,2.0305777E-1,1.5725273E0,-5.447439E-1,5.51186E-1,1.5327021E0,5.173233E-1,6.3456964E-1,2.773639E-1,1.6384579E0,7.835034E-1,2.515748E-1,-0E0,1.3728727E0,2.6617593E-1,-2.1714732E-1,-1.5968822E-1,-2.3125501E-1,2.4971735E-1,-7.782724E-1,5.4755636E-2,5.810009E-2,2.4977227E-1,-2.228366E-1,-9.7785604E-1,-1.2766839E0,-8.840545E-1,-1.4498626E0,2.3650428E-2,-7.6801056E-1,2.7685016E-1,-7.765472E-1,-0E0,-1.0020794E0,-0E0,-7.3119605E-1,-2.5095597E-1,7.5240985E-2,2.5087583E-1,-5.9116162E-2,5.2860504E-1,7.62908E-1,2.8107417E-1,-6.049092E-1,9.163096E-1,1.501835E-1,1.3898628E0,1.5923623E-2,2.4993831E-1,5.482042E-1,-9.639714E-2,1.4612377E-1,1.2500395E-1,1.1523407E-1,2.6269367E-1,3.0116507E-1,1.246566E0,2.6956695E-1,1.1957431E0,-1.06042355E-1,-0E0,-8.0057657E-1,-0E0,-3.559569E-2,5.9376055E-1,-1.6809316E-1,-2.019629E-2,-1.9440985E-1,-1.0137545E0,-1.8182103E-1,-5.9344333E-1,-2.1552342E-1,-0E0,-1.2281118E-1,4.2633332E-2,3.6608353E-2,2.4257079E-1,-1.4290361E-1,-7.5887213E-3,-3.7156936E-2,1.9492675E-2,-1.6138741E-1,-6.0590804E-1,-7.991578E-1,3.8692344E-2,-2.9372907E-1,7.140253E-1,-4.0517457E-2,4.020465E-1,-3.4944925E-2,9.149016E-2,-8.161904E-3,6.548872E-1,-0E0,1.3468151E-1,-6.752652E-1,3.3810994E-1,-0E0,1.5224826E-1,-2.8017995E-1,4.337258E-1,3.851583E-2,2.58914E-1,3.1808123E-1,7.253237E-1,9.784878E-2,-0E0,-0E0,2.3999843E-1,-0E0,1.269656E0,1.0061308E0,2.7134427E-1,-1.22866854E-1,-9.855847E-3,-6.8522885E-2,1.2674359E-2,-0E0,9.453627E-2,-1.571174E-1,-0E0,-9.4800666E-2,-0E0,-2.8360533E-2,4.706559E-2,-1.04453176E-1,-0E0,-1.2545145E-1,-6.5318705E-3,-4.871345E-2,5.5342846E-2,-0E0,1.768543E-1,-2.857616E-2,2.3158712E-2,5.1377616E-3,1.0264223E-1,1.0374932E-1,-0E0,-1.2456682E-1,-5.9535313E-2,-0E0,1.3553523E-1,-8.805701E-2,3.7499502E-2,1.7142247E-2,1.1793458E-1,5.5656288E-2,-0E0,-0E0,1.0964587E-1,7.3414245E-3,-1.7936926E-1,-0E0,1.896469E-1,5.3110715E-2,1.8741705E-1],"categories":[],"categories_nodes":[],"categories_segments":[],"categories_sizes":[],"default_left":[0,0,0,0,0,0,0,0,0,0,0,0,0,0,0,0,0,0,0,0,0,0,0,0,0,0,0,0,0,0,0,0,0,0,0,0,0,0,0,0,0,0,0,0,0,0,0,0,0,0,0,0,0,0,0,0,0,0,0,0,0,0,0,0,0,0,0,0,0,0,0,0,0,0,0,0,0,0,0,0,0,0,0,0,0,0,0,0,0,0,0,0,0,0,0,0,0,0,0,0,0,0,0,0,0,0,0,0,0,0,0,0,0,0,0,0,0,0,0,0,0,0,0,0,0,0,0,0,0,0,0,0,0,0,0,0,0,0,0,0,0,0,0,0,0,0,0,0,0,0,0,0,0,0,0,0,0,0,0,0,0,0,0,0,0,0,0,0,0,0,0,0,0,0,0,0,0,0,0,0,0,0,0,0,0,0,0,0,0,0,0,0,0,0,0,0,0,0,0,0,0],"id":1,"left_children":[1,3,5,7,9,11,13,15,17,19,21,23,25,27,29,31,33,35,37,39,-1,41,43,45,47,49,51,53,55,57,-1,59,61,63,65,67,69,71,73,75,-1,77,79,81,-1,83,85,87,89,91,93,95,-1,97,99,-1,-1,101,-1,-1,-1,103,-1,105,-1,107,-1,-1,109,111,113,115,-1,117,119,121,123,125,-1,127,129,131,-1,133,135,137,-1,139,141,143,145,-1,-1,147,-1,149,-1,-1,-1,151,153,-1,155,-1,-1,157,-1,159,161,-1,-1,-1,163,-1,165,-1,-1,-1,-1,167,-1,-1,-1,-1,-1,-1,169,171,-1,173,175,177,179,-1,-1,-1,181,-1,-1,183,185,-1,-1,187,189,-1,-1,191,193,-1,-1,195,-1,-1,197,199,-1,-1,-1,-1,-1,-1,-1,-1,-1,-1,-1,-1,-1,-1,-1,-1,-1,-1,-1,-1,-1,-1,-1,-1,-1,-1,-1,-1,-1,-1,-1,-1,-1,-1,-1,-1,-1,-1,-1,-1,-1,-1,-1,-1,-1],"loss_changes":[1.2585097E4,1.185856E3,1.5015986E3,2.4363574E2,2.2917381E2,3.2545312E2,9.951074E1,2.5439923E2,7.143994E1,1.701072E2,1.4224608E2,1.4610374E2,5.8277863E1,5.1512207E1,8.011719E0,7.396362E1,9.0085144E1,4.103174E1,9.376807E1,9.00915E0,0E0,3.4443146E1,3.243459E1,7.264333E1,7.412815E1,4.1251495E1,4.8510986E1,3.61651E1,4.901184E0,1.6368652E1,0E0,1.8876953E0,1.8563295E1,9.283684E0,2.831929E1,9.816406E0,1.0061279E1,1.5259979E1,4.4363457E1,9.308355E0,0E0,5.2845764E0,1.6675327E1,2.7746904E1,0E0,1.1412656E1,9.630341E0,3.6432747E1,2.062857E1,9.093552E0,8.595169E0,3.6108646E0,0E0,2.9309082E0,4.680139E1,0E0,0E0,9.348114E0,0E0,0E0,0E0,1.8098298E0,0E0,4.1757736E0,0E0,1.3656896E1,0E0,0E0,6.485958E0,4.645874E0,8.260849E0,3.9223938E0,0E0,8.406063E0,1.8618048E1,1.2071943E0,1.6985762E0,2.4897919E0,0E0,9.349422E0,9.580154E0,1.4633087E1,0E0,7.4421244E0,5.500801E0,3.3228369E0,0E0,2.742862E1,1.3331356E0,6.6760573E0,4.420109E0,0E0,0E0,6.933235E0,0E0,1.6500213E0,0E0,0E0,0E0,4.8918415E1,2.9149475E0,0E0,1.2556976E1,0E0,0E0,3.4123383E0,0E0,1.1864511E1,1.6733551E0,0E0,0E0,0E0,8.857437E0,0E0,2.8235798E0,0E0,0E0,0E0,0E0,4.1817274E0,0E0,0E0,0E0,0E0,0E0,0E0,3.5286465E0,2.9184723E0,0E0,6.129389E0,3.720914E0,8.299783E0,9.509073E0,0E0,0E0,0E0,1.562294E0,0E0,0E0,1.4577942E1,6.281657E0,0E0,0E0,3.9887867E0,2.0671854E0,0E0,0E0,2.773944E0,2.039032E0,0E0,0E0,8.021822E0,0E0,0E0,1.961319E0,1.9388702E1,0E0,0E0,0E0,0E0,0E0,0E0,0E0,0E0,0E0,0E0,0E0,0E0,0E0,0E0,0E0,0E0,0E0,0E0,0E0,0E0,0E0,0E0,0E0,0E0,0E0,0E0,0E0,0E0,0E0,0E0,0E0,0E0,0E0,0E0,0E0,0E0,0E0,0E0,0E0,0E0,0E0,0E0,0E0,0E0,0E0],"parents":[2147483647,0,0,1,1,2,2,3,3,4,4,5,5,6,6,7,7,8,8,9,9,10,10,11,11,12,12,13,13,14,14,15,15,16,16,17,17,18,18,19,19,21,21,22,22,23,23,24,24,25,25,26,26,27,27,28,28,29,29,31,31,32,32,33,33,34,34,35,35,36,36,37,37,38,38,39,39,41,41,42,42,43,43,45,45,46,46,47,47,48,48,49,49,50,50,51,51,53,53,54,54,57,57,61,61,63,63,65,65,68,68,69,69,70,70,71,71,73,73,74,74,75,75,76,76,77,77,79,79,80,80,81,81,83,83,84,84,85,85,87,87,88,88,89,89,90,90,93,93,95,95,99,99,100,100,102,102,105,105,107,107,108,108,112,112,114,114,119,119,126,126,127,127,129,129,130,130,131,131,132,132,136,136,139,139,140,140,143,143,144,144,147,147,148,148,151,151,154,154,155,155],"right_children":[2,4,6,8,10,12,14,16,18,20,22,24,26,28,30,32,34,36,38,40,-1,42,44,46,48,50,52,54,56,58,-1,60,62,64,66,68,70,72,74,76,-1,78,80,82,-1,84,86,88,90,92,94,96,-1,98,100,-1,-1,102,-1,-1,-1,104,-1,106,-1,108,-1,-1,110,112,114,116,-1,118,120,122,124,126,-1,128,130,132,-1,134,136,138,-1,140,142,144,146,-1,-1,148,-1,150,-1,-1,-1,152,154,-1,156,-1,-1,158,-1,160,162,-1,-1,-1,164,-1,166,-1,-1,-1,-1,168,-1,-1,-1,-1,-1,-1,170,172,-1,174,176,178,180,-1,-1,-1,182,-1,-1,184,186,-1,-1,188,190,-1,-1,192,194,-1,-1,196,-1,-1,198,200,-1,-1,-1,-1,-1,-1,-1,-1,-1,-1,-1,-1,-1,-1,-1,-1,-1,-1,-1,-1,-1,-1,-1,-1,-1,-1,-1,-1,-1,-1,-1,-1,-1,-1,-1,-1,-1,-1,-1,-1,-1,-1,-1,-1,-1],"split_conditions":[1.3E2,3.002E1,1.35E2,1E0,1E0,2.994E1,8.4E1,2.501E1,1E0,5E1,5.5E1,1E0,8.4E1,2.978E1,5E1,8.3E1,5.2E1,5.5E1,2.501E1,1E0,2.7095598E-1,1.17E2,1E0,8.1E1,1E0,1E0,5E1,1E0,8.2E1,2.849E1,2.7331114E-1,5.7E1,5E1,1.21E2,1E0,1E0,6.3E1,8.6E1,5.2E1,1.11E2,1.7127894E-1,1E0,4.6E1,8.9E1,2.5837028E-1,2.608E1,5E1,9.1E1,8.1E1,4.7E1,1.33E2,4.4E1,2.773639E-1,4.8E1,1.49E2,2.515748E-1,-0E0,1E0,2.6617593E-1,-2.1714732E-1,-1.5968822E-1,4.4E1,2.4971735E-1,1E0,5.4755636E-2,6.2E1,2.4977227E-1,-2.228366E-1,2.77E1,2.778E1,2.451E1,6.4E1,2.3650428E-2,8.1E1,1E0,4.6E1,4.4E1,3.489E1,-0E0,1.24E2,8.9E1,6.1E1,2.5087583E-1,6.1E1,7.1E1,2.223E1,2.8107417E-1,1E0,4.5E1,5.1E1,5E1,1.5923623E-2,2.4993831E-1,5.5E1,-9.639714E-2,1E0,1.2500395E-1,1.1523407E-1,2.6269367E-1,1E0,1.938E1,2.6956695E-1,1E0,-1.06042355E-1,-0E0,2.94E1,-0E0,1.16E2,6.1E1,-1.6809316E-1,-2.019629E-2,-1.9440985E-1,1.23E2,-1.8182103E-1,8.9E1,-2.1552342E-1,-0E0,-1.2281118E-1,4.2633332E-2,5.7E1,2.4257079E-1,-1.4290361E-1,-7.5887213E-3,-3.7156936E-2,1.9492675E-2,-1.6138741E-1,5.3E1,3.805E1,3.8692344E-2,1E0,5E1,3.351E1,3.246E1,-3.4944925E-2,9.149016E-2,-8.161904E-3,2.964E1,-0E0,1.3468151E-1,5.7E1,8.1E1,-0E0,1.5224826E-1,2.747E1,2.649E1,3.851583E-2,2.58914E-1,3.882E1,3.01E1,9.784878E-2,-0E0,8.1E1,2.3999843E-1,-0E0,4.2E1,1.41E2,2.7134427E-1,-1.22866854E-1,-9.855847E-3,-6.8522885E-2,1.2674359E-2,-0E0,9.453627E-2,-1.571174E-1,-0E0,-9.4800666E-2,-0E0,-2.8360533E-2,4.706559E-2,-1.04453176E-1,-0E0,-1.2545145E-1,-6.5318705E-3,-4.871345E-2,5.5342846E-2,-0E0,1.768543E-1,-2.857616E-2,2.3158712E-2,5.1377616E-3,1.0264223E-1,1.0374932E-1,-0E0,-1.2456682E-1,-5.9535313E-2,-0E0,1.3553523E-1,-8.805701E-2,3.7499502E-2,1.7142247E-2,1.1793458E-1,5.5656288E-2,-0E0,-0E0,1.0964587E-1,7.3414245E-3,-1.7936926E-1,-0E0,1.896469E-1,5.3110715E-2,1.8741705E-1],"split_indices":[2,9,2,8,8,9,3,9,6,0,0,8,3,9,0,3,0,0,9,6,0,2,6,3,6,8,0,8,3,9,0,0,0,2,6,7,0,3,0,2,0,6,0,3,0,9,0,3,3,0,2,0,0,0,2,0,0,8,0,0,0,0,0,7,0,0,0,0,9,9,9,0,0,3,7,0,0,9,0,2,3,0,0,0,3,9,0,7,0,0,0,0,0,0,0,8,0,0,0,6,9,0,6,0,0,9,0,2,3,0,0,0,2,0,3,0,0,0,0,0,0,0,0,0,0,0,0,9,0,6,0,9,9,0,0,0,9,0,0,0,3,0,0,9,9,0,0,9,9,0,0,3,0,0,0,2,0,0,0,0,0,0,0,0,0,0,0,0,0,0,0,0,0,0,0,0,0,0,0,0,0,0,0,0,0,0,0,0,0,0,0,0,0,0,0,0,0,0,0,0,0],"split_type":[0,0,0,0,0,0,0,0,0,0,0,0,0,0,0,0,0,0,0,0,0,0,0,0,0,0,0,0,0,0,0,0,0,0,0,0,0,0,0,0,0,0,0,0,0,0,0,0,0,0,0,0,0,0,0,0,0,0,0,0,0,0,0,0,0,0,0,0,0,0,0,0,0,0,0,0,0,0,0,0,0,0,0,0,0,0,0,0,0,0,0,0,0,0,0,0,0,0,0,0,0,0,0,0,0,0,0,0,0,0,0,0,0,0,0,0,0,0,0,0,0,0,0,0,0,0,0,0,0,0,0,0,0,0,0,0,0,0,0,0,0,0,0,0,0,0,0,0,0,0,0,0,0,0,0,0,0,0,0,0,0,0,0,0,0,0,0,0,0,0,0,0,0,0,0,0,0,0,0,0,0,0,0,0,0,0,0,0,0,0,0,0,0,0,0,0,0,0,0,0,0],"sum_hessian":[9.350467E3,5.3604165E3,3.9900496E3,4.263492E3,1.0969248E3,1.1062179E3,2.8838318E3,8.865762E2,3.3769158E3,1.7008936E2,9.268354E2,6.624621E2,4.4375574E2,5.0907373E2,2.374758E3,4.220648E2,4.6451138E2,3.03582E3,3.4109573E2,7.272647E1,9.7362885E1,5.3911316E2,3.8772226E2,1.8033022E2,4.8213193E2,2.8153757E2,1.6221817E2,2.9816626E2,2.1090749E2,5.7030176E2,1.8044562E3,4.069907E2,1.5074106E1,2.0592616E2,2.585852E2,2.0371768E3,9.986434E2,1.7953514E2,1.6156058E2,6.951841E1,3.2080617E0,1.769133E2,3.6219986E2,3.7606085E2,1.1661387E1,1.2129224E2,5.9037975E1,4.1232858E2,6.980334E1,5.2099457E1,2.2943811E2,5.2735043E1,1.0948312E2,7.426253E1,2.2390372E2,2.0841742E2,2.490053E0,2.181324E2,3.5216937E2,3.2850735E2,7.8483345E1,7.1581635E0,7.9159427E0,2.016904E2,4.235766E0,2.486501E2,9.93511E0,1.9728823E3,6.429441E1,8.7601483E2,1.22628525E2,1.7593533E2,3.599808E0,9.623206E1,6.5328514E1,2.1708889E1,4.780952E1,1.7180682E2,5.106477E0,1.177524E2,2.4444746E2,3.6638934E2,9.671501E0,6.4426544E1,5.6865696E1,2.0393496E1,3.8644478E1,3.9799982E2,1.4328773E1,4.978494E1,2.0018398E1,6.972491E0,4.5126965E1,2.258187E2,3.6194162E0,1.9606236E1,3.3128807E1,1.4212343E1,6.0050186E1,1.1273353E2,1.1117019E2,5.413055E1,1.6400185E2,3.0947707E0,4.063393E0,1.9705594E2,4.6344547E0,2.0951509E2,3.9135006E1,5.133757E1,1.2956838E1,7.3236237E2,1.4365244E2,5.0437027E1,7.21915E1,1.735069E2,2.4284446E0,9.2377914E1,3.8541462E0,5.7900837E1,7.4276767E0,1.462749E1,7.0813994E0,1.6277737E1,3.1531786E1,1.323323E2,3.9474514E1,1.1228529E2,5.467113E0,2.3683261E2,7.6148424E0,2.6694702E2,9.9442345E1,5.394856E1,1.04779825E1,7.4844046E0,4.938129E1,2.7110777E0,1.7682419E1,3.7262015E2,2.5379654E1,2.1652484E0,1.2163525E1,1.7045778E1,3.273916E1,6.8017244E0,1.3216674E1,1.04509995E2,1.2130869E2,3.481852E0,1.6124384E1,9.178373E1,2.09498E1,2.2430584E0,1.0892713E2,1.3180652E2,3.219533E1,1.8511932E2,1.1936606E1,4.8950127E1,1.6056497E2,1.9862427E0,3.714876E1,1.3659172E2,7.060727E0,6.7595985E1,4.5955105E0,2.8422432E1,2.9478405E1,3.5282703E1,4.1918125E0,1.0208556E2,1.0199727E1,2.2748459E2,9.348034E0,3.174568E0,4.4402742E0,1.5575124E2,1.1119578E2,4.8022655E1,5.1419693E1,4.5390415E1,3.9908745E0,2.2106442E2,1.5155574E2,1.566972E1,9.709933E0,1.2866611E1,4.1791673E0,2.133709E1,1.140207E1,9.2567894E1,1.1942102E1,3.2317224E0,1.18076965E2,8.779301E1,3.9907215E0,2.4972076E0,1.06429924E2,4.190951E1,8.989701E1],"tree_param":{"num_deleted":"0","num_feature":"10","num_nodes":"201","size_leaf_vector":"1"}},{"base_weights":[-5.5513595E-4,-8.919598E-1,1.1790292E0,-1.1207436E0,-8.616463E-2,3.0656084E-1,1.5199883E0,-1.2131077E0,2.5965557E-1,-5.221686E-1,2.6477113E-1,-7.724594E-2,8.812164E-1,1.139401E0,1.6010691E0,-1.4097489E0,-9.668087E-1,-3.245657E-1,5.568721E-1,-8.941631E-1,-3.2716605E-1,2.1659103E-1,2.3707013E-1,-2.3313911E-1,1.0984397E0,6.260079E-1,1.3074175E0,8.8259876E-1,1.4927926E0,1.4506942E0,2.418399E-1,-2.1067315E-1,-5.343429E-1,-1.0082141E0,-6.2720194E-2,-0E0,-2.0287329E-1,6.855594E-1,-6.380803E-1,-9.7647375E-1,-2.5644067E-1,-4.2158931E-1,1.9516557E-1,1.4361581E-1,7.966023E-1,-4.478265E-1,1.5929243E-1,1.8112272E-1,-1.1837069E-1,6.5032214E-1,-7.0856266E-2,5.5731964E-1,2.4221595E-1,9.2506546E-1,-9.697061E-2,1.5077349E0,-0E0,1.1948104E0,2.3507284E-1,-1.4449365E-1,-5.2034937E-2,-1.0441308E0,-3.1261432E-1,1.06666885E-1,-4.3567315E-2,-6.29757E-2,3.5100156E-1,-3.2446135E-2,1.1870463E-1,-0E0,-9.30004E-1,-1.5071835E-1,-3.4619927E-1,-4.8229223E-1,3.2362342E-2,-6.91985E-1,-2.614087E-1,-0E0,3.6827573E-1,1.0750679E-1,2.1585833E-1,9.382163E-1,-2.2482812E-1,-6.482892E-1,-5.872032E-2,5.884956E-2,1.1678771E0,4.2559874E-1,1.2105805E-1,1.298033E-1,1.0846079E-1,6.722487E-1,1.1907204E0,1.0454606E0,2.356755E-1,-0E0,1.7780218E-1,-4.7474736E-1,2.390901E-2,-1.1889329E0,-8.8477784E-1,-7.49844E-1,2.2147101E-1,2.5954017E-1,-1.2625791E-1,6.4972574E-1,-0E0,-1.745962E-1,-0E0,-0E0,-7.579151E-2,-9.555035E-2,-0E0,-7.6682097E-1,-0E0,-3.2820773E-1,1.03682086E-1,-0E0,8.422198E-2,3.937038E-3,4.8413473E-1,9.265326E-3,1.5083191E-1,-0E0,-8.3610184E-2,-7.471621E-1,-1.2317118E-1,-6.543236E-1,1.2256223E-2,-8.490661E-4,1.2130959E-1,-0E0,2.1511899E-1,-0E0,4.5848778E-1,7.630941E-2,-0E0,5.574619E-1,1.83854E-1,-0E0,1.2264084E0,-0E0,1.1254251E0,-1.1061664E-1,-0E0,-1.8344384E-2,4.2381074E-2,-1.7843351E-1,5.809894E-3,-1.6201293E-1,-1.1692422E-1,-1.24747135E-1,2.2193596E-2,-0E0,6.608661E-2,-2.9141416E-3,8.151525E-2,1.8339176E-2,-6.080687E-2,-0E0,1.2697156E-1,-1.1946454E-1,-0E0,-5.380395E-2,1.8573811E-2,6.2244616E-2,-0E0,-4.322272E-2,1.8684061E-2,8.490749E-2,-3.604656E-2,-1.18794836E-1,-0E0,-3.2686554E-2,2.9084839E-2,-1.1737729E-1,-0E0,-6.2785987E-3,9.810183E-2,-5.5458684E-2,3.4287286E-3,-0E0,7.221923E-2,6.690639E-2,1.9843839E-1,-0E0,1.8271157E-1,1.9246772E-1,4.2933566E-3],"categories":[],"categories_nodes":[],"categories_segments":[],"categories_sizes":[],"default_left":[0,0,0,0,0,0,0,0,0,0,0,0,0,0,0,0,0,0,0,0,0,0,0,0,0,0,0,0,0,0,0,0,0,0,0,0,0,0,0,0,0,0,0,0,0,0,0,0,0,0,0,0,0,0,0,0,0,0,0,0,0,0,0,0,0,0,0,0,0,0,0,0,0,0,0,0,0,0,0,0,0,0,0,0,0,0,0,0,0,0,0,0,0,0,0,0,0,0,0,0,0,0,0,0,0,0,0,0,0,0,0,0,0,0,0,0,0,0,0,0,0,0,0,0,0,0,0,0,0,0,0,0,0,0,0,0,0,0,0,0,0,0,0,0,0,0,0,0,0,0,0,0,0,0,0,0,0,0,0,0,0,0,0,0,0,0,0,0,0,0,0,0,0,0,0,0,0,0,0,0,0,0,0,0,0,0,0,0,0],"id":2,"left_children":[1,3,5,7,9,11,13,15,17,19,21,23,25,27,29,31,33,35,37,39,41,43,-1,45,47,49,51,53,55,57,-1,-1,59,61,63,65,-1,67,69,71,73,75,77,79,81,83,85,-1,-1,87,-1,89,-1,91,-1,93,-1,95,-1,-1,97,99,101,103,-1,-1,105,-1,-1,-1,107,-1,109,111,-1,113,115,-1,117,119,-1,121,123,125,127,129,131,133,-1,135,-1,137,139,141,-1,-1,-1,143,145,147,149,151,153,155,157,159,-1,-1,-1,-1,-1,-1,-1,161,-1,163,165,-1,-1,167,169,-1,-1,-1,-1,171,173,175,177,179,-1,-1,-1,-1,181,-1,-1,183,-1,-1,185,-1,187,-1,-1,-1,-1,-1,-1,-1,-1,-1,-1,-1,-1,-1,-1,-1,-1,-1,-1,-1,-1,-1,-1,-1,-1,-1,-1,-1,-1,-1,-1,-1,-1,-1,-1,-1,-1,-1,-1,-1,-1,-1,-1,-1,-1,-1,-1],"loss_changes":[9.516337E3,9.4806885E2,1.1544644E3,5.14021E2,1.7562936E2,2.4372452E2,7.875195E1,1.7596289E2,4.4334663E1,3.445407E1,3.7078407E1,1.1907145E2,4.325171E1,3.911078E1,6.8027344E0,4.0479492E1,6.069287E1,3.083263E1,2.6670559E1,6.3240356E0,1.7403084E1,2.3965963E1,0E0,4.974372E1,2.1506386E1,8.301971E0,3.5952087E1,2.0653885E1,3.550293E0,1.3531128E1,0E0,0E0,1.1268854E1,3.701123E1,3.4580321E0,9.667121E0,0E0,1.8604507E1,4.2878914E0,1.572403E0,3.2351139E0,1.0608826E1,1.8708698E0,2.3013315E1,1.1089264E1,2.8228317E1,1.8162361E1,0E0,0E0,7.9847946E0,0E0,2.3857021E0,0E0,1.48259735E1,0E0,1.8583374E0,0E0,2.1023254E0,0E0,0E0,1.9566891E0,2.9762817E1,2.065725E1,1.7494597E0,0E0,0E0,3.4522328E0,0E0,0E0,0E0,4.099699E0,0E0,1.7907803E0,2.6038647E0,0E0,6.319248E0,5.1274443E0,0E0,2.9135191E0,1.999711E1,0E0,2.3963814E0,1.3628159E0,1.1037239E1,6.9248714E0,1.023789E1,4.971407E0,1.2327652E0,0E0,1.4596038E0,0E0,5.919548E0,4.604416E0,3.6680489E0,0E0,0E0,0E0,1.4907291E0,1.3618702E0,2.7573364E1,9.444031E0,5.830633E0,2.4274874E0,3.5372412E0,1.488162E0,3.3538246E0,0E0,0E0,0E0,0E0,0E0,0E0,0E0,4.879101E0,0E0,3.4039612E0,1.3471553E0,0E0,0E0,1.5406608E1,8.492748E0,0E0,0E0,0E0,0E0,1.0272697E1,1.5016744E0,2.2062044E0,5.510638E0,2.2852426E0,0E0,0E0,0E0,0E0,1.8848248E0,0E0,0E0,6.5827484E0,0E0,0E0,1.5263519E0,0E0,5.326885E0,0E0,0E0,0E0,0E0,0E0,0E0,0E0,0E0,0E0,0E0,0E0,0E0,0E0,0E0,0E0,0E0,0E0,0E0,0E0,0E0,0E0,0E0,0E0,0E0,0E0,0E0,0E0,0E0,0E0,0E0,0E0,0E0,0E0,0E0,0E0,0E0,0E0,0E0,0E0,0E0,0E0,0E0,0E0,0E0,0E0,0E0],"parents":[2147483647,0,0,1,1,2,2,3,3,4,4,5,5,6,6,7,7,8,8,9,9,10,10,11,11,12,12,13,13,14,14,15,15,16,16,17,17,18,18,19,19,20,20,21,21,23,23,24,24,25,25,26,26,27,27,28,28,29,29,32,32,33,33,34,34,35,35,37,37,38,38,39,39,40,40,41,41,42,42,43,43,44,44,45,45,46,46,49,49,51,51,53,53,55,55,57,57,60,60,61,61,62,62,63,63,66,66,70,70,72,72,73,73,75,75,76,76,78,78,79,79,81,81,82,82,83,83,84,84,85,85,86,86,87,87,89,89,91,91,92,92,93,93,97,97,98,98,99,99,100,100,101,101,102,102,103,103,104,104,105,105,113,113,115,115,116,116,119,119,120,120,125,125,126,126,127,127,128,128,129,129,134,134,137,137,140,140,142,142],"right_children":[2,4,6,8,10,12,14,16,18,20,22,24,26,28,30,32,34,36,38,40,42,44,-1,46,48,50,52,54,56,58,-1,-1,60,62,64,66,-1,68,70,72,74,76,78,80,82,84,86,-1,-1,88,-1,90,-1,92,-1,94,-1,96,-1,-1,98,100,102,104,-1,-1,106,-1,-1,-1,108,-1,110,112,-1,114,116,-1,118,120,-1,122,124,126,128,130,132,134,-1,136,-1,138,140,142,-1,-1,-1,144,146,148,150,152,154,156,158,160,-1,-1,-1,-1,-1,-1,-1,162,-1,164,166,-1,-1,168,170,-1,-1,-1,-1,172,174,176,178,180,-1,-1,-1,-1,182,-1,-1,184,-1,-1,186,-1,188,-1,-1,-1,-1,-1,-1,-1,-1,-1,-1,-1,-1,-1,-1,-1,-1,-1,-1,-1,-1,-1,-1,-1,-1,-1,-1,-1,-1,-1,-1,-1,-1,-1,-1,-1,-1,-1,-1,-1,-1,-1,-1,-1,-1,-1,-1],"split_conditions":[1.3E2,2.973E1,1.35E2,2E0,5.2E1,2.994E1,8.4E1,2.51E1,7.7E1,1.16E2,9E1,2E0,8.4E1,2.978E1,5E1,9E1,6.3E1,7.6E1,1.21E2,1E0,1E0,2E0,2.3707013E-1,8.3E1,1.31E2,1.34E2,5E1,8.1E1,8.2E1,2.849E1,2.418399E-1,-2.1067315E-1,5.1E1,1E0,6.4E1,5.3E1,-2.0287329E-1,4.7E1,8.1E1,5.1E1,1E0,4.5E1,4.6E1,1E0,1.21E2,2.695E1,1E0,1.8112272E-1,-1.1837069E-1,5.5E1,-7.0856266E-2,4.4E1,2.4221595E-1,1.49E2,-9.697061E-2,5E1,-0E0,2.02E1,2.3507284E-1,-1.4449365E-1,1.15E2,5.2E1,5E1,2.812E1,-4.3567315E-2,-6.29757E-2,2.501E1,-3.2446135E-2,1.1870463E-1,-0E0,8.5E1,-1.5071835E-1,7E1,3.643E1,3.2362342E-2,3.805E1,3.728E1,-0E0,3.16E1,6.1E1,2.1585833E-1,5.4E1,5.7E1,6.1E1,7.1E1,9.1E1,4.7E1,7.1E1,1.2105805E-1,3.114E1,1.0846079E-1,2E0,4.2E1,3.045E1,2.356755E-1,-0E0,1.7780218E-1,1E0,2.353E1,1.25E2,1.19E2,1.22E2,1E0,2.644E1,7.1E1,2.191E1,-0E0,-1.745962E-1,-0E0,-0E0,-7.579151E-2,-9.555035E-2,-0E0,1.24E2,-0E0,1.25E2,3.839E1,-0E0,8.422198E-2,3.121E1,1E0,9.265326E-3,1.5083191E-1,-0E0,-8.3610184E-2,1E0,2.608E1,6.1E1,1E0,2.209E1,1.2130959E-1,-0E0,2.1511899E-1,-0E0,4.1E1,7.630941E-2,-0E0,1E0,1.83854E-1,-0E0,1.938E1,-0E0,4.9E1,-1.1061664E-1,-0E0,-1.8344384E-2,4.2381074E-2,-1.7843351E-1,5.809894E-3,-1.6201293E-1,-1.1692422E-1,-1.24747135E-1,2.2193596E-2,-0E0,6.608661E-2,-2.9141416E-3,8.151525E-2,1.8339176E-2,-6.080687E-2,-0E0,1.2697156E-1,-1.1946454E-1,-0E0,-5.380395E-2,1.8573811E-2,6.2244616E-2,-0E0,-4.322272E-2,1.8684061E-2,8.490749E-2,-3.604656E-2,-1.18794836E-1,-0E0,-3.2686554E-2,2.9084839E-2,-1.1737729E-1,-0E0,-6.2785987E-3,9.810183E-2,-5.5458684E-2,3.4287286E-3,-0E0,7.221923E-2,6.690639E-2,1.9843839E-1,-0E0,1.8271157E-1,1.9246772E-1,4.2933566E-3],"split_indices":[2,9,2,5,0,9,3,9,3,2,3,5,3,9,0,3,0,3,2,5,5,5,0,3,2,2,0,3,3,9,0,0,0,7,0,0,0,0,3,0,1,0,0,7,2,9,7,0,0,0,0,0,0,2,0,0,0,9,0,0,2,0,0,9,0,0,9,0,0,0,3,0,3,9,0,9,9,0,9,0,0,0,0,0,3,3,0,3,0,9,0,5,0,9,0,0,0,1,9,2,2,2,1,9,3,9,0,0,0,0,0,0,0,2,0,2,9,0,0,9,5,0,0,0,0,7,9,0,7,9,0,0,0,0,0,0,0,7,0,0,9,0,0,0,0,0,0,0,0,0,0,0,0,0,0,0,0,0,0,0,0,0,0,0,0,0,0,0,0,0,0,0,0,0,0,0,0,0,0,0,0,0,0,0,0,0,0,0,0],"split_type":[0,0,0,0,0,0,0,0,0,0,0,0,0,0,0,0,0,0,0,0,0,0,0,0,0,0,0,0,0,0,0,0,0,0,0,0,0,0,0,0,0,0,0,0,0,0,0,0,0,0,0,0,0,0,0,0,0,0,0,0,0,0,0,0,0,0,0,0,0,0,0,0,0,0,0,0,0,0,0,0,0,0,0,0,0,0,0,0,0,0,0,0,0,0,0,0,0,0,0,0,0,0,0,0,0,0,0,0,0,0,0,0,0,0,0,0,0,0,0,0,0,0,0,0,0,0,0,0,0,0,0,0,0,0,0,0,0,0,0,0,0,0,0,0,0,0,0,0,0,0,0,0,0,0,0,0,0,0,0,0,0,0,0,0,0,0,0,0,0,0,0,0,0,0,0,0,0,0,0,0,0,0,0,0,0,0,0,0,0],"sum_hessian":[9.048419E3,5.1548706E3,3.8935483E3,4.0126746E3,1.1421959E3,1.0963105E3,2.7972378E3,3.7624858E3,2.501888E2,5.1157254E2,6.306234E2,6.559102E2,4.404003E2,4.9876453E2,2.2984734E3,2.084493E3,1.6779929E3,8.2110374E1,1.6807843E2,1.7097359E2,3.4059897E2,6.116678E2,1.8955639E1,5.8146155E2,7.44487E1,2.8023145E2,1.6016882E2,2.945621E2,2.0420242E2,5.550949E2,1.7433784E3,2.0241442E3,6.034866E1,1.6023097E3,7.56833E1,6.2590294E1,1.9520082E1,1.5368782E2,1.4390602E1,1.4813661E2,2.2836966E1,2.9182013E2,4.8778816E1,5.476697E2,6.3998104E1,3.7894803E2,2.0251352E2,7.088863E1,3.5600705E0,2.764396E2,3.791847E0,5.2955093E1,1.0721374E2,2.883848E2,6.1773E0,2.0171237E2,2.490053E0,2.1404555E2,3.4104938E2,2.8474688E1,3.1873972E1,1.5203811E3,8.192858E1,3.9451305E1,3.6231987E1,2.5967018E1,3.6623272E1,1.6313887E1,1.3737393E2,3.313694E0,1.1076908E1,1.336959E2,1.4440712E1,1.8263853E1,4.573113E0,1.0250125E2,1.893189E2,2.2175457E1,2.660336E1,5.3588824E2,1.1781435E1,5.797182E1,6.0262837E0,2.4624614E2,1.3270187E2,1.8712265E2,1.539086E1,1.2739154E2,1.4904807E2,1.9602606E1,3.335249E1,1.5376485E2,1.3461995E2,4.1018066E1,1.606943E2,4.184271E0,2.0986127E2,7.7775793E0,2.4096394E1,7.859539E2,7.344271E2,4.6783043E1,3.514554E1,2.8790888E1,1.0660418E1,1.7989996E1,1.8633278E1,9.198388E0,1.87852E0,1.8997161E0,1.2540996E1,1.5628991E1,2.6348622E0,9.39878E1,8.51345E0,1.6466107E2,2.465782E1,7.501663E0,1.9101696E1,4.2535117E2,1.1053708E2,7.5623493E0,5.0409473E1,1.9265555E0,4.099728E0,2.0366048E2,4.2585667E1,1.5974163E1,1.1672771E2,1.7240013E2,1.4722525E1,3.7413626E0,1.1649497E1,1.1927778E1,1.1546376E2,5.468928E0,1.41336775E1,1.3318517E2,2.057968E1,4.7304397E0,1.298895E2,2.895393E0,3.8122673E1,4.971383E0,2.806196E0,1.1123386E1,1.2973006E1,7.711845E2,1.4769445E1,2.0149959E2,5.3292755E2,4.413992E1,2.643124E0,1.5583268E1,1.9562271E1,1.1999028E1,1.679186E1,2.446355E0,8.214063E0,3.8825872E0,1.4107409E1,9.0751884E1,3.2359161E0,1.5609216E2,8.568907E0,7.811137E0,1.6846682E1,1.1927165E2,3.0607953E2,1.0051419E2,1.0022886E1,1.8927072E2,1.438975E1,3.7450832E1,5.1348357E0,1.3751441E1,2.2227218E0,1.06015594E2,1.071211E1,1.4178391E1,1.5822174E2,7.4655724E0,1.07998184E2,1.2194091E2,1.1244252E1,2.725592E0,1.2716391E2,3.0884192E1,7.2384825E0],"tree_param":{"num_deleted":"0","num_feature":"10","num_nodes":"189","size_leaf_vector":"1"}},{"base_weights":[-1.3326243E-3,-8.0221534E-1,1.0536234E0,-1.0110487E0,-5.1225282E-2,2.652555E-1,1.3742906E0,-5.4744357E-1,-1.1364677E0,8.7306297E-1,-2.2171585E-1,-6.357276E-2,7.624948E-1,1.0128503E0,1.4531771E0,-1.0966045E0,-9.8075904E-2,-1.2272518E0,-9.48763E-1,-7.077524E-2,2.3596084E-1,-4.7983524E-1,1.2067878E-1,6.155532E-1,-3.2523268E-1,5.2818245E-1,1.1628834E0,7.768045E-1,1.3589468E0,1.3045309E0,2.2012576E-1,-1.1795638E0,7.1168256E-1,-5.085661E-1,2.1011099E-1,-1.2477984E0,-8.738954E-1,-9.78507E-1,-5.102717E-2,-4.7947776E-1,7.872575E-2,-7.8261495E-1,-3.2868573E-1,7.831009E-2,1.9798626E-1,2.3381971E-1,1.3502023E0,-4.0812543E-1,5.210521E-1,1.2853029E0,3.4767082E-1,4.7744226E-1,1.4856573E0,1.3681381E0,5.651937E-1,2.016712E-1,-0E0,1.0546072E0,2.1357661E-1,-1.9111991E-1,-9.5783234E-1,-8.464239E-2,1.7628694E-1,-5.421066E-1,5.8739305E-2,2.283868E-2,4.42733E-1,-1.8469486E-1,-8.552354E-1,-1.1903197E0,-3.5890484E-1,-1.0222696E0,-6.5430266E-1,-8.39376E-2,9.0354286E-2,-1.4104815E-1,-2.2488095E-2,-4.5867806E-4,4.3618295E-2,-8.806457E-1,-3.8859144E-1,-5.607933E-1,-2.0993137E-1,4.527771E-2,1.8766819E-1,-0E0,4.682395E-1,6.4962965E-1,2.4176547E-1,-4.564762E-1,1.0730123E-1,1.08352244E-1,1.0221288E0,7.2158542E-3,2.1058287E-1,9.715923E-2,4.593473E-1,1.5935074E-1,2.8467923E-1,2.2175004E-1,-0E0,8.6094424E-2,2.220356E-1,1.800436E-1,9.534144E-1,2.2158009E-1,8.866887E-1,-1.7342205E-1,-6.810854E-1,-7.548472E-1,-3.9756277E-1,-3.8239035E-1,2.0607941E-1,2.439586E-1,5.990363E-1,-1.3215643E-1,-0E0,-1.7951073E-1,-0E0,-6.20441E-1,2.3009314E-1,-1.5852027E-1,-8.1294805E-1,-1.4262716E-1,-4.0008596E-1,-7.181254E-2,4.2379286E-2,-0E0,-1.3321652E-1,-5.199417E-1,5.5446703E-2,-6.213416E-1,3.35845E-2,-2.4387708E-1,5.710823E-1,-2.30758E-1,1.308343E-1,-1.20162115E-1,8.504037E-2,-0E0,5.6702554E-1,-0E0,1.1449814E-1,-5.786362E-1,-2.03296E-1,-5.778596E-3,5.043064E-1,-0E0,1.9247809E-1,-5.483666E-2,1.8318757E-1,6.023554E-1,2.0909293E-1,-0E0,6.9616124E-2,4.6646368E-2,1.7797743E-1,-0E0,9.7544265E-1,5.5958015E-1,1.5399402E-1,-4.8820876E-2,-1.372099E-1,-1.2387298E-1,-0E0,-0E0,-6.833323E-2,2.0888852E-2,-7.7964745E-2,-0E0,5.443625E-2,-1.5444927E-2,5.3837165E-2,6.2865294E-3,1.078604E-1,-1.0566878E-1,7.2355085E-4,-0E0,7.262848E-2,-1.259613E-1,-0E0,-1.0778934E-1,-3.5069346E-2,1.3922187E-2,-6.93921E-2,-9.103398E-2,-0E0,-9.66025E-2,-0E0,-8.421405E-2,-2.4176057E-2,-0E0,1.4941047E-1,-7.073803E-2,2.775298E-3,-7.613521E-3,4.3266203E-2,-0E0,-5.492778E-2,9.883296E-2,1.4464376E-3,-9.3067706E-2,-0E0,-4.5252055E-2,1.4051563E-2,1.0989594E-1,-0E0,3.5304945E-2,-5.4552834E-2,9.513701E-2,-0E0,-0E0,7.761281E-2,1.84454E-2,-1.5620719E-1,-0E0,1.4780858E-1,4.7489963E-2,1.645313E-1],"categories":[],"categories_nodes":[],"categories_segments":[],"categories_sizes":[],"default_left":[0,0,0,0,0,0,0,0,0,0,0,0,0,0,0,0,0,0,0,0,0,0,0,0,0,0,0,0,0,0,0,0,0,0,0,0,0,0,0,0,0,0,0,0,0,0,0,0,0,0,0,0,0,0,0,0,0,0,0,0,0,0,0,0,0,0,0,0,0,0,0,0,0,0,0,0,0,0,0,0,0,0,0,0,0,0,0,0,0,0,0,0,0,0,0,0,0,0,0,0,0,0,0,0,0,0,0,0,0,0,0,0,0,0,0,0,0,0,0,0,0,0,0,0,0,0,0,0,0,0,0,0,0,0,0,0,0,0,0,0,0,0,0,0,0,0,0,0,0,0,0,0,0,0,0,0,0,0,0,0,0,0,0,0,0,0,0,0,0,0,0,0,0,0,0,0,0,0,0,0,0,0,0,0,0,0,0,0,0,0,0,0,0,0,0,0,0,0,0,0,0,0,0,0,0,0,0,0,0,0,0,0,0,0,0,0,0,0,0],"id":3,"left_children":[1,3,5,7,9,11,13,15,17,19,21,23,25,27,29,31,33,35,37,39,-1,41,43,45,47,49,51,53,55,57,-1,59,61,63,65,67,69,71,73,75,77,79,81,83,-1,85,87,89,91,93,95,97,99,101,103,-1,-1,105,-1,-1,107,-1,-1,109,-1,111,113,-1,115,117,119,121,123,-1,125,-1,-1,-1,-1,127,129,131,133,135,-1,137,139,141,-1,143,-1,145,147,-1,-1,149,151,-1,153,-1,-1,-1,-1,155,157,-1,159,-1,161,163,165,167,169,171,173,-1,-1,-1,-1,175,177,-1,179,-1,181,183,-1,-1,-1,185,-1,187,-1,189,191,193,195,197,-1,-1,199,-1,-1,201,203,-1,205,-1,-1,-1,207,209,211,-1,-1,213,-1,-1,215,217,-1,-1,-1,-1,-1,-1,-1,-1,-1,-1,-1,-1,-1,-1,-1,-1,-1,-1,-1,-1,-1,-1,-1,-1,-1,-1,-1,-1,-1,-1,-1,-1,-1,-1,-1,-1,-1,-1,-1,-1,-1,-1,-1,-1,-1,-1,-1,-1,-1,-1,-1,-1,-1,-1,-1,-1,-1,-1,-1],"loss_changes":[7.317612E3,7.702163E2,9.4103076E2,2.1986792E2,1.6834325E2,1.786251E2,6.904834E1,2.0130035E2,4.588916E1,1.1798522E2,8.1216225E1,1.1538757E2,3.66436E1,3.407019E1,6.8710938E0,5.7384735E1,5.8582813E1,9.2404785E0,2.4607971E1,5.2621245E0,0E0,2.1424377E1,1.731543E1,4.684429E1,3.3218384E1,3.4396255E1,2.9820038E1,3.206166E1,2.7763977E0,1.3064392E1,0E0,3.6341858E0,1.2113396E1,6.616894E0,1.0380879E1,1.9282227E0,1.6138947E1,9.591003E0,3.6117785E0,1.2715149E0,1.4802974E0,3.6193085E0,8.13377E0,1.2358606E1,0E0,6.564449E0,6.5075607E0,2.3747765E1,6.059801E0,6.422043E0,5.2680817E0,3.2374506E0,1.538208E0,3.148819E0,3.0630806E1,0E0,0E0,9.547165E0,0E0,0E0,3.7784348E0,0E0,0E0,3.3682556E0,0E0,1.08677225E1,1.6227112E0,0E0,1.271595E0,2.821144E0,8.656866E0,5.3013916E0,6.7923546E0,0E0,1.2843342E0,0E0,0E0,0E0,0E0,1.8025742E0,4.5265465E0,6.383297E0,5.9588385E0,8.617493E0,0E0,4.5108337E0,3.3706474E0,2.383727E0,0E0,1.12651825E1,0E0,2.4407008E0,5.2399254E0,0E0,0E0,2.8546624E0,3.7270012E0,0E0,2.8800979E0,0E0,0E0,0E0,0E0,1.3306788E1,1.9447632E0,0E0,4.5101624E0,0E0,3.1126041E0,4.1952515E0,2.5174503E0,4.2582254E0,3.444057E0,2.9743798E0,2.646759E0,0E0,0E0,0E0,0E0,3.7118979E0,1.5491062E0,0E0,6.810936E0,0E0,1.8725252E0,1.4518286E0,0E0,0E0,0E0,2.8463774E0,0E0,2.3334427E0,0E0,4.594363E0,2.4573476E0,6.1116524E0,9.16408E0,1.7774758E0,0E0,0E0,1.7018642E0,0E0,0E0,8.462242E0,4.940822E0,0E0,2.1496913E0,0E0,0E0,0E0,2.0742307E0,3.445156E0,4.627161E0,0E0,0E0,7.5235214E0,0E0,0E0,1.8828888E0,4.5489025E0,0E0,0E0,0E0,0E0,0E0,0E0,0E0,0E0,0E0,0E0,0E0,0E0,0E0,0E0,0E0,0E0,0E0,0E0,0E0,0E0,0E0,0E0,0E0,0E0,0E0,0E0,0E0,0E0,0E0,0E0,0E0,0E0,0E0,0E0,0E0,0E0,0E0,0E0,0E0,0E0,0E0,0E0,0E0,0E0,0E0,0E0,0E0,0E0,0E0,0E0,0E0,0E0,0E0,0E0,0E0,0E0,0E0,0E0,0E0],"parents":[2147483647,0,0,1,1,2,2,3,3,4,4,5,5,6,6,7,7,8,8,9,9,10,10,11,11,12,12,13,13,14,14,15,15,16,16,17,17,18,18,19,19,21,21,22,22,23,23,24,24,25,25,26,26,27,27,28,28,29,29,31,31,32,32,33,33,34,34,35,35,36,36,37,37,38,38,39,39,40,40,41,41,42,42,43,43,45,45,46,46,47,47,48,48,49,49,50,50,51,51,52,52,53,53,54,54,57,57,60,60,63,63,65,65,66,66,68,68,69,69,70,70,71,71,72,72,74,74,79,79,80,80,81,81,82,82,83,83,85,85,86,86,87,87,89,89,91,91,92,92,95,95,96,96,98,98,103,103,104,104,106,106,108,108,109,109,110,110,111,111,112,112,113,113,114,114,119,119,120,120,122,122,124,124,125,125,129,129,131,131,133,133,134,134,135,135,136,136,137,137,140,140,143,143,144,144,146,146,150,150,151,151,152,152,155,155,158,158,159,159],"right_children":[2,4,6,8,10,12,14,16,18,20,22,24,26,28,30,32,34,36,38,40,-1,42,44,46,48,50,52,54,56,58,-1,60,62,64,66,68,70,72,74,76,78,80,82,84,-1,86,88,90,92,94,96,98,100,102,104,-1,-1,106,-1,-1,108,-1,-1,110,-1,112,114,-1,116,118,120,122,124,-1,126,-1,-1,-1,-1,128,130,132,134,136,-1,138,140,142,-1,144,-1,146,148,-1,-1,150,152,-1,154,-1,-1,-1,-1,156,158,-1,160,-1,162,164,166,168,170,172,174,-1,-1,-1,-1,176,178,-1,180,-1,182,184,-1,-1,-1,186,-1,188,-1,190,192,194,196,198,-1,-1,200,-1,-1,202,204,-1,206,-1,-1,-1,208,210,212,-1,-1,214,-1,-1,216,218,-1,-1,-1,-1,-1,-1,-1,-1,-1,-1,-1,-1,-1,-1,-1,-1,-1,-1,-1,-1,-1,-1,-1,-1,-1,-1,-1,-1,-1,-1,-1,-1,-1,-1,-1,-1,-1,-1,-1,-1,-1,-1,-1,-1,-1,-1,-1,-1,-1,-1,-1,-1,-1,-1,-1,-1,-1,-1,-1],"split_conditions":[1.3E2,3.002E1,1.35E2,1E0,1E0,2.994E1,8.4E1,2.498E1,5.5E1,5E1,5.5E1,1E0,8.4E1,3.002E1,5E1,8.3E1,5.2E1,1E0,1E0,1.11E2,2.3596084E-1,1.17E2,8.9E1,8.1E1,1E0,1E0,5E1,1E0,8.2E1,2.849E1,2.2012576E-1,5.3E1,4.4E1,1.21E2,5.8E1,9E1,2.565E1,6.3E1,2.439E1,4.1E1,4.7E1,3.489E1,4.6E1,1E0,1.9798626E-1,2.591E1,5E1,9.1E1,8.1E1,4.7E1,3.183E1,1E0,1.31E2,4.8E1,1.49E2,2.016712E-1,-0E0,1E0,2.1357661E-1,-1.9111991E-1,2.334E1,-8.464239E-2,1.7628694E-1,4.4E1,5.8739305E-2,8E1,6.1E1,-1.8469486E-1,2.886E1,8.1E1,5E1,2.722E1,2.451E1,-8.39376E-2,1E0,-1.4104815E-1,-2.2488095E-2,-4.5867806E-4,4.3618295E-2,3.01E1,1E0,1.24E2,9E1,1.18E2,1.8766819E-1,6.1E1,7.1E1,2.223E1,2.4176547E-1,2.71E1,1.0730123E-1,2.701E1,4.7E1,7.2158542E-3,2.1058287E-1,7.7E1,3.563E1,1.5935074E-1,4.4E1,2.2175004E-1,-0E0,8.6094424E-2,2.220356E-1,1E0,4.2E1,2.2158009E-1,1.41E2,-1.7342205E-1,2.401E1,2.927E1,4.6E1,5.3E1,2.664E1,1.16E2,2.618E1,-1.3215643E-1,-0E0,-1.7951073E-1,-0E0,1.22E2,1.2E2,-1.5852027E-1,1.23E2,-1.4262716E-1,8E1,5.8E1,4.2379286E-2,-0E0,-1.3321652E-1,5.3E1,5.5446703E-2,8.4E1,3.35845E-2,3.08E1,5E1,5.9E1,3.246E1,1E0,8.504037E-2,-0E0,2.917E1,-0E0,1.1449814E-1,6.3E1,6E1,-5.778596E-3,2.954E1,-0E0,1.9247809E-1,-5.483666E-2,8.1E1,6.4E1,5.7E1,-0E0,6.9616124E-2,8.1E1,1.7797743E-1,-0E0,6.9E1,9.6E1,1.5399402E-1,-4.8820876E-2,-1.372099E-1,-1.2387298E-1,-0E0,-0E0,-6.833323E-2,2.0888852E-2,-7.7964745E-2,-0E0,5.443625E-2,-1.5444927E-2,5.3837165E-2,6.2865294E-3,1.078604E-1,-1.0566878E-1,7.2355085E-4,-0E0,7.262848E-2,-1.259613E-1,-0E0,-1.0778934E-1,-3.5069346E-2,1.3922187E-2,-6.93921E-2,-9.103398E-2,-0E0,-9.66025E-2,-0E0,-8.421405E-2,-2.4176057E-2,-0E0,1.4941047E-1,-7.073803E-2,2.775298E-3,-7.613521E-3,4.3266203E-2,-0E0,-5.492778E-2,9.883296E-2,1.4464376E-3,-9.3067706E-2,-0E0,-4.5252055E-2,1.4051563E-2,1.0989594E-1,-0E0,3.5304945E-2,-5.4552834E-2,9.513701E-2,-0E0,-0E0,7.761281E-2,1.84454E-2,-1.5620719E-1,-0E0,1.4780858E-1,4.7489963E-2,1.645313E-1],"split_indices":[2,9,2,8,8,9,3,9,0,0,0,8,3,9,0,3,0,7,7,2,0,2,3,3,7,8,0,8,3,9,0,0,0,2,0,3,9,0,9,0,0,9,0,7,0,9,0,3,3,0,9,8,2,0,2,0,0,8,0,0,9,0,0,0,0,3,0,0,9,3,0,9,9,0,1,0,0,0,0,9,1,2,3,2,0,0,3,9,0,9,0,9,0,0,0,3,9,0,0,0,0,0,0,7,0,0,2,0,9,9,0,0,9,2,9,0,0,0,0,2,2,0,2,0,3,0,0,0,0,0,0,3,0,9,0,0,9,1,0,0,9,0,0,0,0,0,9,0,0,0,3,0,0,0,0,3,0,0,3,3,0,0,0,0,0,0,0,0,0,0,0,0,0,0,0,0,0,0,0,0,0,0,0,0,0,0,0,0,0,0,0,0,0,0,0,0,0,0,0,0,0,0,0,0,0,0,0,0,0,0,0,0,0,0,0,0,0,0,0],"split_type":[0,0,0,0,0,0,0,0,0,0,0,0,0,0,0,0,0,0,0,0,0,0,0,0,0,0,0,0,0,0,0,0,0,0,0,0,0,0,0,0,0,0,0,0,0,0,0,0,0,0,0,0,0,0,0,0,0,0,0,0,0,0,0,0,0,0,0,0,0,0,0,0,0,0,0,0,0,0,0,0,0,0,0,0,0,0,0,0,0,0,0,0,0,0,0,0,0,0,0,0,0,0,0,0,0,0,0,0,0,0,0,0,0,0,0,0,0,0,0,0,0,0,0,0,0,0,0,0,0,0,0,0,0,0,0,0,0,0,0,0,0,0,0,0,0,0,0,0,0,0,0,0,0,0,0,0,0,0,0,0,0,0,0,0,0,0,0,0,0,0,0,0,0,0,0,0,0,0,0,0,0,0,0,0,0,0,0,0,0,0,0,0,0,0,0,0,0,0,0,0,0,0,0,0,0,0,0,0,0,0,0,0,0,0,0,0,0,0,0],"sum_hessian":[8.659065E3,4.9234863E3,3.7355789E3,3.8498923E3,1.0735944E3,1.0825209E3,2.6530579E3,8.2447174E2,3.0254204E3,1.6461505E2,9.0897925E2,6.4989526E2,4.3262567E2,4.828067E2,2.1702512E3,3.682807E2,4.5619107E2,2.0275432E3,9.978772E2,7.13215E1,9.329354E1,5.2123804E2,3.877412E2,1.7821524E2,4.7168E2,2.7779807E2,1.5482762E2,2.927781E2,1.9002861E2,5.2923413E2,1.641017E3,3.535692E2,1.4711488E1,1.9799623E2,2.5819482E2,1.9079471E3,1.1959614E2,9.6366406E2,3.4213146E1,2.1865702E1,4.9455803E1,1.6754204E2,3.53696E2,3.776132E2,1.0128002E1,1.2009804E2,5.8117207E1,4.322845E2,3.93955E1,4.994218E1,2.2785588E2,5.248463E1,1.0234299E2,7.294727E1,2.1983083E2,1.8753854E2,2.490053E0,2.0693115E2,3.2230298E2,2.1861917E2,1.3495003E2,2.8872998E0,1.1824188E1,1.9349957E2,4.496657E0,1.4844008E2,1.0975475E2,1.8537384E3,5.4208706E1,7.072758E1,4.8868557E1,8.414043E2,1.22259735E2,9.451369E0,2.4761778E1,5.4501033E0,1.64156E1,3.0354816E1,1.9100986E1,1.2897377E2,3.856826E1,1.12593315E2,2.411027E2,3.7032648E2,7.2867293E0,6.1138622E1,5.8959415E1,2.0396296E1,3.7720913E1,4.1703275E2,1.525175E1,2.4563496E1,1.4832005E1,6.945881E0,4.29963E1,7.635754E1,1.5149834E2,8.822747E0,4.3661884E1,9.9709045E1,2.6339345E0,1.4414051E1,5.8533222E1,1.1378411E2,1.0604672E2,5.0049603E1,1.5688155E2,6.858096E1,6.6369064E1,7.070755E1,1.2279203E2,4.2487495E1,1.0595258E2,5.52036E1,5.4551147E1,5.0412E1,3.796708E0,6.889386E1,1.8337163E0,3.609001E1,1.2778543E1,6.495929E2,1.918114E2,4.9451115E1,7.2808624E1,8.639307E0,1.612247E1,5.2975545E0,1.23676216E2,3.5437267E1,3.130995E0,1.0711346E2,5.4798565E0,2.3426988E2,6.8328366E0,8.173008E1,2.885964E2,5.1180916E1,9.957708E0,8.664137E0,5.0295277E1,2.6926816E0,1.7703615E1,2.750317E2,1.4200104E2,1.5112707E1,9.450789E0,3.245793E0,1.1586212E1,7.6574974E0,6.870004E1,9.033708E1,6.116126E1,1.5889732E1,2.777215E1,1.0357813E2,1.0205981E1,2.7469285E0,1.032998E2,5.7757442E1,9.91241E1,3.2369232E1,3.3999836E1,6.2276913E1,8.430639E0,2.1857077E1,1.0093495E2,6.485857E0,3.6001637E1,4.899274E1,5.6959843E1,1.026013E1,4.4943474E1,1.3820758E1,4.073039E1,3.368607E1,2.4039419E0,4.6483526E0,8.130191E0,1.8144498E2,1.0366425E1,1.8343424E1,5.44652E1,3.3299155E0,5.309391E0,3.197254E1,3.4647262E0,1.0082895E2,6.284509E0,3.9147305E1,1.9512257E2,3.1534078E0,3.679429E0,4.4086155E1,3.764392E1,1.3119524E2,1.5740117E2,3.430198E1,1.6878935E1,3.910023E1,1.1195044E1,2.5015608E2,2.4875628E1,1.09938255E2,3.2062782E1,7.4556684E0,1.9951206E0,6.610048E1,2.5995655E0,8.614396E1,4.1931233E0,3.6064518E1,2.5096739E1,9.936699E1,4.211138E0,4.4886594E0,9.8811134E1,4.446052E1,1.329692E1],"tree_param":{"num_deleted":"0","num_feature":"10","num_nodes":"219","size_leaf_vector":"1"}},{"base_weights":[-1.1938323E-3,-3.2000497E-1,8.6205935E-1,-5.900691E-1,-3.6621083E-2,4.4836122E-1,1.3272445E0,-1.6072497E-1,-7.089057E-1,5.305221E-1,-2.0840424E-1,2.5044587E-1,1.1906404E0,2.3348497E-1,1.2746749E0,-5.649066E-1,2.1133635E-2,-7.6912767E-1,-2.3958671E-1,4.8331556E-1,2.107652E-1,-2.847409E-1,5.646626E-1,8.334712E-1,9.420885E-3,2.0557144E-1,8.594679E-1,1.8211637E-1,2.4263988E-1,-6.064077E-1,-0E0,-1.819926E-2,1.0780377E-1,-1.0272082E0,-6.864239E-1,-3.957174E-1,3.6571962E-1,3.7490273E-1,1.1694208E-1,-3.7706295E-1,2.1251058E-2,3.50031E-1,2.1906416E-1,7.2197783E-1,1.9767244E-1,-1.16516195E-1,8.961535E-1,1.8598576E-1,5.873311E-1,-6.317445E-1,9.652852E-3,-6.458021E-2,4.7450265E-1,-1.556188E-1,-4.3453762E-1,-7.1928966E-1,-2.6099467E-1,-5.7642454E-1,-1.903761E-1,1.8687429E-2,1.816366E-1,3.883302E-2,7.2327524E-2,-4.2862755E-1,1.1677325E-2,-1.2425084E-2,7.566439E-2,9.380665E-3,6.0882013E-2,2.3219897E-1,1.1505445E-1,-2.3011516E-1,3.776217E-2,-0E0,1.365987E-1,-0E0,9.872203E-2,-1.021608E-1,-4.9500454E-2,-1.29334E-1,1.355469E-2,8.3759636E-2,-0E0,-7.933093E-2,1.4780097E-2,-7.3660696E-1,-1.4287658E-1,-4.3606266E-2,5.647461E-3,-9.05095E-2,-0E0,-8.79867E-3,-4.086908E-1,-4.477473E-1,2.1026768E-2,8.520275E-3,-1.57516E-1,-0E0,8.931469E-2,-3.4946117E-1,6.6748425E-2,-2.8069306E-2,-0E0,-1.13506064E-1,-9.055465E-2,-5.190095E-2,-0E0,-7.2319016E-2,-0E0,-7.096153E-2,-4.6378534E-2,-3.0371623E-2,6.393166E-2,-5.497246E-2,1.8056927E-2,-2.9421631E-2,2.5339827E-2],"categories":[],"categories_nodes":[],"categories_segments":[],"categories_sizes":[],"default_left":[0,0,0,0,0,0,0,0,0,0,0,0,0,0,0,0,0,0,0,0,0,0,0,0,0,0,0,0,0,0,0,0,0,0,0,0,0,0,0,0,0,0,0,0,0,0,0,0,0,0,0,0,0,0,0,0,0,0,0,0,0,0,0,0,0,0,0,0,0,0,0,0,0,0,0,0,0,0,0,0,0,0,0,0,0,0,0,0,0,0,0,0,0,0,0,0,0,0,0,0,0,0,0,0,0,0,0,0,0,0,0,0,0,0,0,0,0],"id":4,"left_children":[1,3,5,7,9,11,13,15,17,19,21,23,25,-1,27,29,31,33,35,37,-1,39,41,43,45,-1,47,-1,-1,49,-1,51,-1,53,55,57,59,61,-1,63,65,67,-1,69,-1,71,73,-1,75,77,-1,79,81,-1,83,85,87,89,91,-1,-1,-1,-1,93,-1,95,-1,-1,-1,97,-1,99,-1,-1,-1,-1,-1,-1,-1,101,-1,-1,-1,-1,-1,103,105,-1,-1,-1,-1,-1,107,109,-1,-1,111,-1,-1,113,115,-1,-1,-1,-1,-1,-1,-1,-1,-1,-1,-1,-1,-1,-1,-1,-1],"loss_changes":[2.2627117E3,4.586031E2,4.2241675E2,1.5495312E2,2.8563416E2,1.6979353E2,6.2700195E0,5.0421898E1,6.571826E1,2.4457535E1,1.3288364E2,1.2948483E2,1.1104919E1,0E0,3.3046875E0,5.4352875E0,1.4337158E1,4.1148804E1,2.658177E1,1.9421936E1,0E0,5.8838455E1,3.575544E1,1.0224319E1,7.578786E1,0E0,6.7402725E0,0E0,0E0,4.536194E0,0E0,9.187631E0,0E0,6.2770996E0,2.0492615E1,6.7078285E0,8.618439E0,4.730652E0,0E0,3.8059494E1,8.861531E0,2.1093311E0,0E0,4.6578217E0,0E0,2.4660173E1,2.483986E0,0E0,4.334776E0,1.3517151E0,0E0,4.177253E0,1.3944755E0,0E0,2.7099442E0,1.3106506E1,1.8345737E0,2.6475983E0,2.2484012E0,0E0,0E0,0E0,0E0,1.6296082E1,0E0,4.7081714E0,0E0,0E0,0E0,1.8093246E0,0E0,1.6517023E1,0E0,0E0,0E0,0E0,0E0,0E0,0E0,2.0468297E0,0E0,0E0,0E0,0E0,0E0,3.0164795E0,1.2244644E0,0E0,0E0,0E0,0E0,0E0,2.0762696E0,4.7369385E0,0E0,0E0,4.147669E0,0E0,0E0,4.3734093E0,3.5301416E0,0E0,0E0,0E0,0E0,0E0,0E0,0E0,0E0,0E0,0E0,0E0,0E0,0E0,0E0,0E0,0E0],"parents":[2147483647,0,0,1,1,2,2,3,3,4,4,5,5,6,6,7,7,8,8,9,9,10,10,11,11,12,12,14,14,15,15,16,16,17,17,18,18,19,19,21,21,22,22,23,23,24,24,26,26,29,29,31,31,33,33,34,34,35,35,36,36,37,37,39,39,40,40,41,41,43,43,45,45,46,46,48,48,49,49,51,51,52,52,54,54,55,55,56,56,57,57,58,58,63,63,65,65,69,69,71,71,79,79,85,85,86,86,92,92,93,93,96,96,99,99,100,100],"right_children":[2,4,6,8,10,12,14,16,18,20,22,24,26,-1,28,30,32,34,36,38,-1,40,42,44,46,-1,48,-1,-1,50,-1,52,-1,54,56,58,60,62,-1,64,66,68,-1,70,-1,72,74,-1,76,78,-1,80,82,-1,84,86,88,90,92,-1,-1,-1,-1,94,-1,96,-1,-1,-1,98,-1,100,-1,-1,-1,-1,-1,-1,-1,102,-1,-1,-1,-1,-1,104,106,-1,-1,-1,-1,-1,108,110,-1,-1,112,-1,-1,114,116,-1,-1,-1,-1,-1,-1,-1,-1,-1,-1,-1,-1,-1,-1,-1,-1],"split_conditions":[1E0,5.3E1,2E0,1E0,1E0,1E0,1E0,4.4E1,1E0,1E0,1E0,1E0,1E0,2.3348497E-1,1E0,1E0,1E0,4.3E1,5E1,6.1E1,2.107652E-1,6.1E1,1E0,1E0,1E0,2.0557144E-1,1E0,1.8211637E-1,2.4263988E-1,1E0,-0E0,1E0,1.0780377E-1,1E0,1E0,4.5E1,1E0,5.7E1,1.1694208E-1,1E0,2E0,5.5E1,2.1906416E-1,4.5E1,1.9767244E-1,5.9E1,4.1E1,1.8598576E-1,4.2E1,4.3E1,9.652852E-3,5.1E1,5.2E1,-1.556188E-1,1E0,1E0,1E0,1E0,1E0,1.8687429E-2,1.816366E-1,3.883302E-2,7.2327524E-2,1E0,1.1677325E-2,1E0,7.566439E-2,9.380665E-3,6.0882013E-2,1E0,1.1505445E-1,1E0,3.776217E-2,-0E0,1.365987E-1,-0E0,9.872203E-2,-1.021608E-1,-4.9500454E-2,1E0,1.355469E-2,8.3759636E-2,-0E0,-7.933093E-2,1.4780097E-2,5.1E1,4.7E1,-4.3606266E-2,5.647461E-3,-9.05095E-2,-0E0,-8.79867E-3,1E0,5.9E1,2.1026768E-2,8.520275E-3,1E0,-0E0,8.931469E-2,2E0,4.5E1,-2.8069306E-2,-0E0,-1.13506064E-1,-9.055465E-2,-5.190095E-2,-0E0,-7.2319016E-2,-0E0,-7.096153E-2,-4.6378534E-2,-3.0371623E-2,6.393166E-2,-5.497246E-2,1.8056927E-2,-2.9421631E-2,2.5339827E-2],"split_indices":[4,0,4,8,8,6,8,0,6,6,6,8,1,0,6,5,6,0,0,0,0,0,7,7,7,0,8,0,0,7,0,5,0,5,5,0,7,0,0,5,5,0,0,0,0,0,0,0,0,0,0,0,0,0,7,7,7,5,7,0,0,0,0,7,0,1,0,0,0,1,0,1,0,0,0,0,0,0,0,1,0,0,0,0,0,0,0,0,0,0,0,0,5,0,0,0,7,0,0,5,0,0,0,0,0,0,0,0,0,0,0,0,0,0,0,0,0],"split_type":[0,0,0,0,0,0,0,0,0,0,0,0,0,0,0,0,0,0,0,0,0,0,0,0,0,0,0,0,0,0,0,0,0,0,0,0,0,0,0,0,0,0,0,0,0,0,0,0,0,0,0,0,0,0,0,0,0,0,0,0,0,0,0,0,0,0,0,0,0,0,0,0,0,0,0,0,0,0,0,0,0,0,0,0,0,0,0,0,0,0,0,0,0,0,0,0,0,0,0,0,0,0,0,0,0,0,0,0,0,0,0,0,0,0,0,0,0],"sum_hessian":[8.222987E3,6.007409E3,2.2155786E3,3.071783E3,2.9356262E3,1.1761926E3,1.0393861E3,6.701025E2,2.4016804E3,6.7922327E2,2.2564028E3,9.319805E2,2.4421204E2,1.6112411E2,8.78262E2,2.1046526E2,4.596372E2,2.1241643E3,2.7751617E2,6.49392E2,2.9831245E1,2.0566265E3,1.9977632E2,2.693358E2,6.626447E2,1.4361945E2,1.0059259E2,8.1415186E2,6.411018E1,1.9726057E2,1.3204672E1,4.341539E2,2.5483318E1,5.063504E2,1.6178138E3,2.2351538E2,5.40008E1,4.8897232E2,1.6041971E2,1.5846152E3,4.7201138E2,1.6531148E2,3.446485E1,2.2679E2,4.25458E1,5.7925165E2,8.339307E1,3.5625156E1,6.496744E1,1.9296399E2,4.296586E0,4.0140298E2,3.2750916E1,4.760189E2,3.0331507E1,1.4967443E3,1.2106949E2,1.1264521E2,1.1087016E2,4.526687E1,8.733931E0,2.627499E2,2.2622243E2,1.4277217E3,1.5689354E2,4.3931763E2,3.2693775E1,3.6438046E1,1.2887343E2,2.9486813E1,1.9730318E2,4.485723E2,1.3067937E2,3.2014983E0,8.019157E1,6.074293E0,5.8893143E1,1.5175111E2,4.1212883E1,2.9308368E2,1.08319305E2,2.6574326E1,6.176592E0,2.8365957E1,1.96555E0,1.4494686E3,4.727568E1,1.1392467E2,7.144818E0,1.0535269E2,7.292518E0,7.597993E1,3.489024E1,1.3850886E3,4.2633E1,2.8718307E2,1.5213455E2,2.1353914E1,8.132898E0,3.2447815E2,1.2409417E2,1.8955542E2,1.03528244E2,1.0952096E3,3.54259E2,1.6495216E1,3.0780466E1,3.2208214E1,2.6820257E0,1.0774811E3,3.076075E2,1.4423842E2,7.896136E0,3.1242188E2,1.205625E1,2.9662462E1,9.443171E1],"tree_param":{"num_deleted":"0","num_feature":"10","num_nodes":"117","size_leaf_vector":"1"}},{"base_weights":[3.6842763E-4,-5.380601E-1,1.2471845E0,-7.3879987E-1,1.1392258E0,8.961671E-1,1.3268253E0,-8.863283E-1,-7.644773E-2,1.9438283E-1,1.411392E0,9.275552E-1,-4.657639E-1,1.7637074E-1,2.0071316E-1,-1.0227228E0,-7.397789E-1,-2.5853604E-1,2.9139462E-1,1.9549455E-1,-2.164938E-1,2.6295415E-1,5.684638E-1,7.999718E-1,2.0220026E-1,3.5924524E-2,-1.5357119E-1,-1.1426797E0,-9.395373E-1,-6.786809E-1,-2.0806368E-1,-3.840787E-1,3.2497615E-1,1.7512658E-1,1.8337648E-1,-1.1780846E0,2.3242159E-1,7.0048904E-1,2.0503831E-1,-1.7181614E-1,-8.2890713E-1,-9.5767367E-1,-4.1875157E-1,-7.18267E-1,-6.891774E-2,-5.339219E-1,-2.5560066E-1,1.9224855E-1,-0E0,-2.8836567E-2,2.8828838E-1,-2.1617313E-1,-0E0,4.4471228E-1,9.701794E-1,-1.3267735E-1,-0E0,-1.4418629E-1,-6.464299E-1,-8.495786E-2,8.170827E-2,-7.5622904E-1,-5.1908296E-2,-2.525726E-1,1.96906E-1,-8.287826E-2,-0E0,-3.2604173E-1,3.4586492E-1,-1.896557E-1,1.6756073E-1,4.921546E-1,-1.02244645E-1,2.2952202E-1,1.4969507E-1,1.2585415E-1,-1.5584613E-1,2.8705714E-2,5.5132234E-1,1.5065648E-1,-0E0,-6.1336827E-2,-1.8008898E-1,-1.4032479E-1,-9.92781E-2,-3.59379E-2,-0E0,-1.2919955E-1,-0E0,-5.3018082E-2,1.8786946E-3,-0E0,6.6898845E-2,9.980057E-2,-2.6224028E-2,-5.0718025E-3,1.6945213E-1,-0E0,-1.5230416E-1,2.3416007E-2,1.4037529E-1,2.1348572E-3,8.8415064E-2],"categories":[],"categories_nodes":[],"categories_segments":[],"categories_sizes":[],"default_left":[0,0,0,0,0,0,0,0,0,0,0,0,0,0,0,0,0,0,0,0,0,0,0,0,0,0,0,0,0,0,0,0,0,0,0,0,0,0,0,0,0,0,0,0,0,0,0,0,0,0,0,0,0,0,0,0,0,0,0,0,0,0,0,0,0,0,0,0,0,0,0,0,0,0,0,0,0,0,0,0,0,0,0,0,0,0,0,0,0,0,0,0,0,0,0,0,0,0,0,0,0,0,0],"id":5,"left_children":[1,3,5,7,9,11,13,15,17,19,21,23,25,-1,-1,27,29,31,33,-1,-1,-1,35,37,-1,-1,-1,39,41,43,-1,45,47,49,-1,51,-1,53,-1,-1,55,57,59,61,63,65,67,-1,69,71,73,-1,75,77,79,-1,-1,-1,81,-1,-1,83,85,87,-1,-1,-1,89,91,-1,93,95,97,99,-1,-1,-1,-1,101,-1,-1,-1,-1,-1,-1,-1,-1,-1,-1,-1,-1,-1,-1,-1,-1,-1,-1,-1,-1,-1,-1,-1,-1],"loss_changes":[5.4040605E3,1.8923386E3,6.2075195E1,4.8863354E2,1.5084827E2,2.0989105E1,2.8613281E0,7.764868E1,6.1538456E1,2.6247787E2,1.4246283E2,2.0122437E1,5.887366E0,0E0,0E0,1.5716309E1,7.7013306E1,4.557566E1,3.0464104E1,0E0,0E0,0E0,2.6418213E2,1.5811829E1,0E0,0E0,0E0,2.1810303E0,8.772339E0,4.2571716E1,0E0,8.152748E0,3.4278557E1,6.788723E0,0E0,1.8262619E1,0E0,1.8113678E1,0E0,0E0,4.208084E0,5.1916504E0,7.9832773E0,4.1761597E1,2.8308996E1,2.9596329E0,1.2183603E1,0E0,1.795455E1,2.817791E0,5.0514183E0,0E0,1.2355633E1,2.801426E0,8.162033E0,0E0,0E0,0E0,9.043915E0,0E0,0E0,2.1910828E1,1.2911876E0,1.5697146E1,0E0,0E0,0E0,3.7525654E0,1.9179277E0,0E0,1.4197841E1,5.1207647E0,9.089994E0,6.371373E0,0E0,0E0,0E0,0E0,1.7704124E0,0E0,0E0,0E0,0E0,0E0,0E0,0E0,0E0,0E0,0E0,0E0,0E0,0E0,0E0,0E0,0E0,0E0,0E0,0E0,0E0,0E0,0E0,0E0,0E0],"parents":[2147483647,0,0,1,1,2,2,3,3,4,4,5,5,6,6,7,7,8,8,9,9,10,10,11,11,12,12,15,15,16,16,17,17,18,18,22,22,23,23,27,27,28,28,29,29,31,31,32,32,33,33,35,35,37,37,40,40,41,41,42,42,43,43,44,44,45,45,46,46,48,48,49,49,50,50,52,52,53,53,54,54,58,58,61,61,62,62,63,63,67,67,68,68,70,70,71,71,72,72,73,73,78,78],"right_children":[2,4,6,8,10,12,14,16,18,20,22,24,26,-1,-1,28,30,32,34,-1,-1,-1,36,38,-1,-1,-1,40,42,44,-1,46,48,50,-1,52,-1,54,-1,-1,56,58,60,62,64,66,68,-1,70,72,74,-1,76,78,80,-1,-1,-1,82,-1,-1,84,86,88,-1,-1,-1,90,92,-1,94,96,98,100,-1,-1,-1,-1,102,-1,-1,-1,-1,-1,-1,-1,-1,-1,-1,-1,-1,-1,-1,-1,-1,-1,-1,-1,-1,-1,-1,-1,-1],"split_conditions":[1.35E2,2E0,8.4E1,1.25E2,7.8E1,8.1E1,5E1,5.2E1,8.5E1,7.6E1,8.2E1,2E0,2E0,1.7637074E-1,2.0071316E-1,1.13E2,1E0,1E0,1E0,1.9549455E-1,-2.164938E-1,2.6295415E-1,8.9E1,1E0,2.0220026E-1,3.5924524E-2,-1.5357119E-1,1E0,8.8E1,1E0,-2.0806368E-1,5.4E1,1.26E2,5E1,1.8337648E-1,8.3E1,2.3242159E-1,1.41E2,2.0503831E-1,-1.7181614E-1,1E0,1E0,1E0,2E0,1E0,1E0,1E0,1.9224855E-1,7.4E1,8.6E1,1E0,-2.1617313E-1,8.8E1,5.2E1,1E0,-1.3267735E-1,-0E0,-1.4418629E-1,1E0,-8.495786E-2,8.170827E-2,1.19E2,5.5E1,7.1E1,1.96906E-1,-8.287826E-2,-0E0,2E0,1.26E2,-1.896557E-1,5.2E1,1E0,1E0,9.1E1,1.4969507E-1,1.2585415E-1,-1.5584613E-1,2.8705714E-2,8E1,1.5065648E-1,-0E0,-6.1336827E-2,-1.8008898E-1,-1.4032479E-1,-9.92781E-2,-3.59379E-2,-0E0,-1.2919955E-1,-0E0,-5.3018082E-2,1.8786946E-3,-0E0,6.6898845E-2,9.980057E-2,-2.6224028E-2,-5.0718025E-3,1.6945213E-1,-0E0,-1.5230416E-1,2.3416007E-2,1.4037529E-1,2.1348572E-3,8.8415064E-2],"split_indices":[2,4,3,2,3,3,0,0,3,3,3,4,4,0,0,2,4,4,6,0,0,0,3,6,0,0,0,5,3,6,0,0,2,0,0,3,0,2,0,0,6,5,6,5,7,7,6,0,3,3,7,0,3,0,4,0,0,0,4,0,0,2,0,3,0,0,0,5,2,0,0,4,4,3,0,0,0,0,3,0,0,0,0,0,0,0,0,0,0,0,0,0,0,0,0,0,0,0,0,0,0,0,0],"split_type":[0,0,0,0,0,0,0,0,0,0,0,0,0,0,0,0,0,0,0,0,0,0,0,0,0,0,0,0,0,0,0,0,0,0,0,0,0,0,0,0,0,0,0,0,0,0,0,0,0,0,0,0,0,0,0,0,0,0,0,0,0,0,0,0,0,0,0,0,0,0,0,0,0,0,0,0,0,0,0,0,0,0,0,0,0,0,0,0,0,0,0,0,0,0,0,0,0,0,0,0,0,0,0],"sum_hessian":[8.0453496E3,5.618276E3,2.4270737E3,5.019403E3,5.988728E2,4.561688E2,1.9709049E3,4.1023135E3,9.170895E2,1.3600677E2,4.6286603E2,4.4767862E2,8.490167E0,4.95423E2,1.4754818E3,2.1140447E3,1.9882689E3,6.172248E2,2.9986465E2,8.173777E1,5.4269E1,3.1670578E2,1.4616025E2,3.5473114E2,9.2947464E1,2.6253934E0,5.8647738E0,8.4962854E2,1.264416E3,1.8286002E3,1.5966872E2,5.1104114E2,1.0618367E2,2.705113E2,2.9353361E1,5.291282E1,9.324742E1,3.0911594E2,4.5615215E1,7.7285706E2,7.6771484E1,1.2172408E3,4.7175205E1,1.713912E3,1.1468822E2,2.2709236E2,2.8394876E2,2.5385172E1,8.07985E1,9.070455E1,1.7980675E2,4.1876038E1,1.103678E1,1.6404616E2,1.4506978E2,6.9586205E1,7.18528E0,1.1213412E3,9.589963E1,4.2686275E1,4.488927E0,1.618606E3,9.530611E1,1.03592316E2,1.1095902E1,2.1243054E2,1.466182E1,2.5759152E2,2.6357235E1,8.286464E0,7.251203E1,7.0475116E0,8.365704E1,1.704035E2,9.403246E0,6.0652213E0,4.971559E0,5.5679893E1,1.0836626E2,1.3737172E2,7.6980724E0,7.270825E1,2.319137E1,4.536559E2,1.1649501E3,2.4667767E1,7.063834E1,2.7683802E1,7.5908516E1,2.3863615E2,1.8955383E1,2.445106E0,2.391213E1,3.1040382E1,4.1471653E1,2.935258E0,4.1122537E0,7.5617935E1,8.039108E0,1.5923643E2,1.1167067E1,1.2814834E1,9.555142E1],"tree_param":{"num_deleted":"0","num_feature":"10","num_nodes":"103","size_leaf_vector":"1"}},{"base_weights":[2.5162715E-4,-4.8406917E-1,1.1585503E0,-6.6438216E-1,1.0295607E0,8.025484E-1,1.2426958E0,-9.308252E-1,1.130452E-1,1.794564E-1,1.276897E0,5.602377E-1,1.1785283E0,1.1509477E0,1.9227076E-1,-3.619039E-1,-1.1168584E0,8.826681E-1,-2.674423E-2,1.7024873E-1,-2.0076688E-1,2.3611543E-1,5.21316E-1,1.6876E-1,3.6306053E-1,1.7512788E-1,-0E0,8.207162E-1,1.179558E0,-8.8233006E-1,1.2694258E-2,-1.203506E0,-4.756426E-1,2.7720854E-1,1.4567216E-1,-1.3789594E-1,8.032473E-1,-1.0749786E0,2.1422128E-1,1.2233596E-1,1.039248E0,1.2034119E0,-1.1837406E0,-0E0,1.7481361E-1,-1.0617576E0,1.3264738E-1,-6.5441884E-2,9.3541265E-1,-1.245912E0,-3.0881694E-1,-9.829216E-1,-0E0,-5.252755E-2,5.828769E-2,-6.1701283E-2,-7.7151656E-1,8.644975E-1,5.192989E-2,-1.9894476E-1,-0E0,-6.028559E-1,6.868176E-1,1.2838374E0,-1.3551241E-1,-0E0,1.8973535E-1,-0E0,-3.447369E-1,-1.1987729E0,-5.663309E-2,-4.049693E-1,3.3091757E-2,3.0821674E-2,1.6121964E-1,-1.2564898E0,5.2417368E-2,-4.3878615E-1,2.5608428E-2,-1.2003843E0,4.0041253E-2,-8.686702E-2,1.3038509E-1,-3.6027873E-1,2.0978726E-2,-1.9912769E-1,1.3535862E-1,-0E0,1.3712451E-1,1.08680576E-1,-9.938249E-2,1.1268101E-1,-1.4159308E-1,-1.2253939E0,1.6427934E-1,7.51803E-1,-2.349887E-1,3.2543555E-1,2.0531516E-1,-3.835724E-2,7.228701E-2,-1.9099227E-1,-1.0811351E-2,-2.8474102E-2,4.5082964E-2,-6.39213E-2,-0E0,-1.0902066E-2,2.120476E-2,-1.8838526E-1,-1.4749414E-1,-6.748165E-2,-0E0,-1.8194099E-1,-0E0,-1.28576765E-2,1.0887639E-1,-6.251953E-2,5.4551725E-4,-5.805611E-2,6.1813258E-2,-1.962867E-2,1.5884694E-2,7.191676E-2,-1.131637E-1,-2.1955946E-1,4.5404255E-2,-0E0,1.1512629E-1,-1.4080837E-1,-0E0,1.3330893E-1,-6.9818996E-2],"categories":[],"categories_nodes":[],"categories_segments":[],"categories_sizes":[],"default_left":[0,0,0,0,0,0,0,0,0,0,0,0,0,0,0,0,0,0,0,0,0,0,0,0,0,0,0,0,0,0,0,0,0,0,0,0,0,0,0,0,0,0,0,0,0,0,0,0,0,0,0,0,0,0,0,0,0,0,0,0,0,0,0,0,0,0,0,0,0,0,0,0,0,0,0,0,0,0,0,0,0,0,0,0,0,0,0,0,0,0,0,0,0,0,0,0,0,0,0,0,0,0,0,0,0,0,0,0,0,0,0,0,0,0,0,0,0,0,0,0,0,0,0,0,0,0,0,0,0,0,0,0,0],"id":6,"left_children":[1,3,5,7,9,11,13,15,17,19,21,23,25,27,-1,29,31,33,35,-1,-1,-1,37,-1,39,-1,-1,41,43,45,47,49,51,53,-1,55,57,59,-1,61,63,65,67,-1,-1,69,-1,71,73,75,77,79,81,-1,-1,83,85,87,89,-1,91,93,95,97,-1,-1,-1,99,-1,101,103,105,107,-1,-1,109,-1,111,-1,113,115,117,-1,119,121,-1,123,-1,-1,-1,-1,-1,-1,125,-1,127,129,131,-1,-1,-1,-1,-1,-1,-1,-1,-1,-1,-1,-1,-1,-1,-1,-1,-1,-1,-1,-1,-1,-1,-1,-1,-1,-1,-1,-1,-1,-1,-1,-1,-1,-1,-1],"loss_changes":[4.271443E3,1.4647418E3,6.204077E1,9.9537256E2,1.1684003E2,3.562198E1,4.381836E0,3.749414E2,1.3334492E2,2.0128726E2,1.0481091E2,2.8045471E1,2.0019226E0,2.2990723E0,0E0,1.7429071E2,1.4550293E2,9.770569E0,9.428637E1,0E0,0E0,0E0,2.0862622E2,0E0,3.1368317E1,0E0,0E0,5.6995533E1,8.74115E0,1.2090335E2,3.881575E1,8.628613E1,8.01961E1,2.8005545E0,0E0,4.2516468E1,3.6922073E0,1.4853699E1,0E0,6.479305E1,2.7225258E1,4.2381363E0,1.8312454E1,0E0,0E0,4.43226E1,0E0,1.656229E1,2.1282463E0,4.0579834E1,7.5707855E0,3.7719986E1,1.4431413E1,0E0,0E0,2.0947828E1,5.318115E1,7.019745E0,7.154042E0,0E0,9.83996E0,7.445934E1,6.6282425E0,1.3093796E0,0E0,0E0,0E0,1.2429713E0,0E0,3.1278473E1,2.0401392E0,2.0752544E0,4.4887514E0,0E0,0E0,8.816406E0,0E0,1.3068047E0,0E0,8.346573E0,3.8186882E0,5.4761534E0,0E0,5.174242E0,8.587109E0,0E0,1.1864146E1,0E0,0E0,0E0,0E0,0E0,0E0,2.4049637E1,0E0,1.7246895E0,2.5818083E0,5.353094E0,0E0,0E0,0E0,0E0,0E0,0E0,0E0,0E0,0E0,0E0,0E0,0E0,0E0,0E0,0E0,0E0,0E0,0E0,0E0,0E0,0E0,0E0,0E0,0E0,0E0,0E0,0E0,0E0,0E0,0E0,0E0,0E0,0E0,0E0,0E0],"parents":[2147483647,0,0,1,1,2,2,3,3,4,4,5,5,6,6,7,7,8,8,9,9,10,10,11,11,12,12,13,13,15,15,16,16,17,17,18,18,22,22,24,24,27,27,28,28,29,29,30,30,31,31,32,32,33,33,35,35,36,36,37,37,39,39,40,40,41,41,42,42,45,45,47,47,48,48,49,49,50,50,51,51,52,52,55,55,56,56,57,57,58,58,60,60,61,61,62,62,63,63,67,67,69,69,70,70,71,71,72,72,75,75,77,77,79,79,80,80,81,81,83,83,84,84,86,86,93,93,95,95,96,96,97,97],"right_children":[2,4,6,8,10,12,14,16,18,20,22,24,26,28,-1,30,32,34,36,-1,-1,-1,38,-1,40,-1,-1,42,44,46,48,50,52,54,-1,56,58,60,-1,62,64,66,68,-1,-1,70,-1,72,74,76,78,80,82,-1,-1,84,86,88,90,-1,92,94,96,98,-1,-1,-1,100,-1,102,104,106,108,-1,-1,110,-1,112,-1,114,116,118,-1,120,122,-1,124,-1,-1,-1,-1,-1,-1,126,-1,128,130,132,-1,-1,-1,-1,-1,-1,-1,-1,-1,-1,-1,-1,-1,-1,-1,-1,-1,-1,-1,-1,-1,-1,-1,-1,-1,-1,-1,-1,-1,-1,-1,-1,-1,-1,-1],"split_conditions":[1.35E2,2E0,8.4E1,3.002E1,7.8E1,3.002E1,2.938E1,1E0,1E0,7.6E1,8.2E1,1E0,8.2E1,9E1,1.9227076E-1,2.498E1,1E0,1.11E2,8.5E1,1.7024873E-1,-2.0076688E-1,2.3611543E-1,8.9E1,1.6876E-1,2E0,1.7512788E-1,-0E0,8.7E1,1.37E2,8.3E1,8.5E1,2E0,2.501E1,3.02E1,1.4567216E-1,1E0,1E0,8.3E1,2.1422128E-1,1.41E2,8.1E1,2.637E1,2E0,-0E0,1.7481361E-1,1.29E2,1.3264738E-1,1.17E2,1.21E2,9.1E1,1.27E2,1.29E2,8.3E1,-5.252755E-2,5.828769E-2,1.16E2,1.21E2,9E1,8.9E1,-1.9894476E-1,8.8E1,1E0,1E0,8E1,-1.3551241E-1,-0E0,1.8973535E-1,1.41E2,-3.447369E-1,1E0,2.451E1,1E0,2.695E1,3.0821674E-2,1.6121964E-1,1E0,5.2417368E-2,2.969E1,2.5608428E-2,8.6E1,8.1E1,7.5E1,1.3038509E-1,1E0,3.171E1,-1.9912769E-1,3.5E1,-0E0,1.3712451E-1,1.08680576E-1,-9.938249E-2,1.1268101E-1,-1.4159308E-1,2E0,1.6427934E-1,6.9E1,2.595E1,7.1E1,2.0531516E-1,-3.835724E-2,7.228701E-2,-1.9099227E-1,-1.0811351E-2,-2.8474102E-2,4.5082964E-2,-6.39213E-2,-0E0,-1.0902066E-2,2.120476E-2,-1.8838526E-1,-1.4749414E-1,-6.748165E-2,-0E0,-1.8194099E-1,-0E0,-1.28576765E-2,1.0887639E-1,-6.251953E-2,5.4551725E-4,-5.805611E-2,6.1813258E-2,-1.962867E-2,1.5884694E-2,7.191676E-2,-1.131637E-1,-2.1955946E-1,4.5404255E-2,-0E0,1.1512629E-1,-1.4080837E-1,-0E0,1.3330893E-1,-6.9818996E-2],"split_indices":[2,4,3,9,3,9,9,8,8,3,3,8,3,3,0,9,6,2,3,0,0,0,3,0,4,0,0,3,2,3,3,5,9,9,0,4,4,3,0,2,3,9,4,0,0,2,0,2,2,3,2,2,3,0,0,2,2,3,3,0,3,6,4,3,0,0,0,2,0,5,9,6,9,0,0,4,0,9,0,3,3,3,0,6,9,0,9,0,0,0,0,0,0,5,0,3,9,3,0,0,0,0,0,0,0,0,0,0,0,0,0,0,0,0,0,0,0,0,0,0,0,0,0,0,0,0,0,0,0,0,0,0,0],"split_type":[0,0,0,0,0,0,0,0,0,0,0,0,0,0,0,0,0,0,0,0,0,0,0,0,0,0,0,0,0,0,0,0,0,0,0,0,0,0,0,0,0,0,0,0,0,0,0,0,0,0,0,0,0,0,0,0,0,0,0,0,0,0,0,0,0,0,0,0,0,0,0,0,0,0,0,0,0,0,0,0,0,0,0,0,0,0,0,0,0,0,0,0,0,0,0,0,0,0,0,0,0,0,0,0,0,0,0,0,0,0,0,0,0,0,0,0,0,0,0,0,0,0,0,0,0,0,0,0,0,0,0,0,0],"sum_hessian":[7.609321E3,5.365058E3,2.2442622E3,4.795743E3,5.6931525E2,4.359743E2,1.808288E3,3.5733394E3,1.2224037E3,1.3056895E2,4.387463E2,2.7014374E2,1.6583055E2,7.8199475E2,1.0262933E3,8.8401196E2,2.6893274E3,1.8903531E2,1.0333684E3,8.089128E1,4.967766E1,3.023572E2,1.363891E2,6.378079E1,2.0636296E2,1.6334549E2,2.4850628E0,7.071471E1,7.1128E2,3.714672E2,5.1254474E2,2.3655425E3,3.2378476E2,3.229759E1,1.5673772E2,9.1430786E2,1.1906051E2,4.9622616E1,8.6766495E1,1.553905E2,5.0972454E1,6.0610737E1,1.0103971E1,6.708014E0,7.04572E2,3.3899664E2,3.2470535E1,4.7164108E2,4.0903667E1,2.2559497E3,1.0959296E2,1.578788E2,1.6590598E2,2.1469302E0,3.0150658E1,8.201232E2,9.418466E1,1.0751223E2,1.1548281E1,3.888251E1,1.0740104E1,6.646363E1,8.892688E1,4.6586994E1,4.385459E0,5.6491756E0,5.4961563E1,5.134194E0,4.969776E0,2.9641116E2,4.2585487E1,1.096754E2,3.619657E2,1.0196861E1,3.0706806E1,2.2426343E3,1.3315321E1,8.963488E1,1.9958075E1,1.3159662E2,2.6282179E1,1.5028583E2,1.5620136E1,1.8206985E2,6.3805334E2,5.821106E1,3.5973602E1,7.476435E0,1.000358E2,7.3066754E0,4.2416053E0,5.9343753E0,4.805729E0,4.9906216E1,1.6557413E1,8.526111E1,3.6657746E0,7.2872767E0,3.9299717E1,2.2130473E0,2.9211469E0,2.700605E2,2.6350677E1,3.523059E1,7.354895E0,1.0572867E2,3.9467306E0,1.7555492E2,1.8641078E2,2.019321E3,2.233133E2,8.781409E1,1.8207972E0,1.2890453E2,2.692087E0,2.0799063E1,5.483115E0,3.5278408E1,1.1500742E2,1.7722832E2,4.8415403E0,2.2173398E2,4.1631937E2,2.7815992E1,8.15761E0,4.355583E1,6.3503876E0,4.138631E0,8.1122475E1,1.8654284E0,1.8003461E0,5.5344124E0,1.7528644E0],"tree_param":{"num_deleted":"0","num_feature":"10","num_nodes":"133","size_leaf_vector":"1"}},{"base_weights":[6.423656E-4,-4.423393E-1,1.0890092E0,-6.049155E-1,1.3596776E-1,7.3418546E-1,1.1757125E0,-6.7701256E-1,3.003295E-1,-5.4035285E-3,4.327713E-1,7.622564E-1,-3.193738E-1,1.0108414E0,1.8077254E-1,-8.332629E-1,-4.9013513E-1,3.6797464E-1,-1.4911833E-1,3.887873E-2,-1.6329837E-1,3.60151E-1,1.54261E-1,6.957878E-1,1.7990969E-1,-1.0449512E-1,-0E0,9.419187E-1,1.8648238E-1,-9.655571E-1,-7.4589586E-1,-5.295723E-1,5.107657E-2,-6.483597E-2,5.4922247E-1,-2.6376955E-2,5.7699263E-1,-0E0,4.3271217E-1,4.9764328E-2,7.392577E-1,1.1298526E-1,1.5244941E-1,-1.5772769E-1,-8.754884E-1,-7.6767075E-1,-1.9346362E-1,-7.3381627E-1,-4.452248E-1,-7.788006E-2,1.7835745E-1,9.017495E-2,-1.5999243E-1,-0E0,9.004783E-2,-8.772369E-2,3.8401175E-1,-4.7266502E-2,1.0080108E-1,6.829386E-2,-5.378709E-2,4.54311E-1,-7.620377E-2,8.980555E-2,1.3316701E-1,-8.881501E-1,-1.4195748E-2,-1.3071786E-1,-6.957201E-1,-3.264174E-1,1.2680617E-1,-1.1642394E-1,-1.5006708E-1,-4.694262E-1,3.4001198E-2,-5.7026607E-1,6.5754265E-2,-5.204938E-2,3.5922885E-1,-1.136301E-1,3.3420315E-1,1.8102919E-1,1.0450783E-1,2.094053E-2,-9.330995E-2,-1.5953088E-1,5.673749E-2,8.2339205E-2,1.9900133E-1,-1.342385E-1,-7.05293E-2,-1.0700102E-1,-4.9183693E-2,-6.5511614E-2,8.391096E-3,-2.079187E-3,-1.0251471E-1,-7.673072E-2,-3.7023976E-2,-0E0,1.00279264E-1,-9.45499E-2,-0E0,1.09761596E-1,-1.8853563E-3,6.0882263E-2,-0E0,-2.7375199E-2,-0E0,8.6760156E-2,-0E0,-5.2586067E-2,6.625857E-2,-3.490323E-2,3.0817067E-2,1.8388653E-2,1.2814926E-1],"categories":[],"categories_nodes":[],"categories_segments":[],"categories_sizes":[],"default_left":[0,0,0,0,0,0,0,0,0,0,0,0,0,0,0,0,0,0,0,0,0,0,0,0,0,0,0,0,0,0,0,0,0,0,0,0,0,0,0,0,0,0,0,0,0,0,0,0,0,0,0,0,0,0,0,0,0,0,0,0,0,0,0,0,0,0,0,0,0,0,0,0,0,0,0,0,0,0,0,0,0,0,0,0,0,0,0,0,0,0,0,0,0,0,0,0,0,0,0,0,0,0,0,0,0,0,0,0,0,0,0,0,0,0,0,0,0],"id":7,"left_children":[1,3,5,7,9,11,13,15,17,19,21,23,25,27,-1,29,31,33,-1,35,-1,37,-1,39,-1,-1,-1,41,-1,43,45,47,49,51,53,55,57,59,61,-1,63,-1,-1,-1,65,67,69,71,73,75,-1,77,-1,-1,-1,79,81,83,-1,-1,85,87,-1,-1,-1,89,-1,-1,91,93,-1,-1,95,97,99,101,103,-1,105,107,109,-1,111,-1,-1,113,-1,-1,115,-1,-1,-1,-1,-1,-1,-1,-1,-1,-1,-1,-1,-1,-1,-1,-1,-1,-1,-1,-1,-1,-1,-1,-1,-1,-1,-1,-1],"loss_changes":[3.433146E3,4.765481E2,5.859204E1,2.5883862E2,4.733811E1,1.3359467E1,9.10376E0,1.03833984E2,2.5037092E1,3.8772823E1,1.3017723E1,7.618561E0,2.3988578E0,1.8730774E0,0E0,1.8733643E1,3.6742493E1,2.2830906E1,0E0,2.6312502E1,0E0,8.703941E0,0E0,3.1661835E0,0E0,0E0,0E0,1.2940063E0,0E0,2.6244507E0,1.2507263E1,2.426947E1,1.9079807E1,1.4795082E1,6.950329E0,1.5537621E1,6.8161755E0,1.3153768E0,5.8005943E0,0E0,3.0849152E0,0E0,0E0,0E0,2.321991E0,6.368225E0,6.463721E0,1.3463486E1,1.38364105E1,8.112139E0,0E0,8.429483E0,0E0,0E0,0E0,5.7441063E0,1.6000088E1,2.2539132E0,0E0,0E0,2.0341938E0,5.73164E0,0E0,0E0,0E0,1.2981567E0,0E0,0E0,6.487213E0,2.985239E0,0E0,0E0,2.0049548E0,1.0643204E1,1.8186655E0,1.3800611E0,5.492912E0,0E0,1.426465E0,4.4082365E0,2.3913436E0,0E0,1.0420682E1,0E0,0E0,1.4447038E0,0E0,0E0,2.2387109E0,0E0,0E0,0E0,0E0,0E0,0E0,0E0,0E0,0E0,0E0,0E0,0E0,0E0,0E0,0E0,0E0,0E0,0E0,0E0,0E0,0E0,0E0,0E0,0E0,0E0,0E0,0E0,0E0],"parents":[2147483647,0,0,1,1,2,2,3,3,4,4,5,5,6,6,7,7,8,8,9,9,10,10,11,11,12,12,13,13,15,15,16,16,17,17,19,19,21,21,23,23,27,27,29,29,30,30,31,31,32,32,33,33,34,34,35,35,36,36,37,37,38,38,40,40,44,44,45,45,46,46,47,47,48,48,49,49,51,51,55,55,56,56,57,57,60,60,61,61,65,65,68,68,69,69,72,72,73,73,74,74,75,75,76,76,78,78,79,79,80,80,82,82,85,85,88,88],"right_children":[2,4,6,8,10,12,14,16,18,20,22,24,26,28,-1,30,32,34,-1,36,-1,38,-1,40,-1,-1,-1,42,-1,44,46,48,50,52,54,56,58,60,62,-1,64,-1,-1,-1,66,68,70,72,74,76,-1,78,-1,-1,-1,80,82,84,-1,-1,86,88,-1,-1,-1,90,-1,-1,92,94,-1,-1,96,98,100,102,104,-1,106,108,110,-1,112,-1,-1,114,-1,-1,116,-1,-1,-1,-1,-1,-1,-1,-1,-1,-1,-1,-1,-1,-1,-1,-1,-1,-1,-1,-1,-1,-1,-1,-1,-1,-1,-1,-1],"split_conditions":[1.35E2,1.25E2,8.4E1,2E0,8.5E1,8.1E1,5E1,5.3E1,1.21E2,8.2E1,1E0,1E0,1E0,1E0,1.8077254E-1,1.17E2,1E0,1.2E2,-1.4911833E-1,2E0,-1.6329837E-1,4.6E1,1.54261E-1,4.7E1,1.7990969E-1,-1.0449512E-1,-0E0,1.41E2,1.8648238E-1,4.5E1,8.9E1,7.9E1,1E0,1.16E2,4.7E1,1E0,1.29E2,8.6E1,1.33E2,4.9764328E-2,1.49E2,1.1298526E-1,1.5244941E-1,-1.5772769E-1,8.1E1,4.5E1,1E0,6.3E1,9E1,7.1E1,1.7835745E-1,5.1E1,-1.5999243E-1,-0E0,9.004783E-2,1E0,1E0,1.26E2,1.0080108E-1,6.829386E-2,9.3E1,1E0,-7.620377E-2,8.980555E-2,1.3316701E-1,1E0,-1.4195748E-2,-1.3071786E-1,1E0,5.1E1,1.2680617E-1,-1.1642394E-1,7.1E1,6.1E1,9.6E1,1E0,1E0,-5.204938E-2,6.4E1,5.7E1,1E0,1.8102919E-1,5.1E1,2.094053E-2,-9.330995E-2,2E0,5.673749E-2,8.2339205E-2,1E0,-1.342385E-1,-7.05293E-2,-1.0700102E-1,-4.9183693E-2,-6.5511614E-2,8.391096E-3,-2.079187E-3,-1.0251471E-1,-7.673072E-2,-3.7023976E-2,-0E0,1.00279264E-1,-9.45499E-2,-0E0,1.09761596E-1,-1.8853563E-3,6.0882263E-2,-0E0,-2.7375199E-2,-0E0,8.6760156E-2,-0E0,-5.2586067E-2,6.625857E-2,-3.490323E-2,3.0817067E-2,1.8388653E-2,1.2814926E-1],"split_indices":[2,2,3,5,3,3,0,0,2,3,6,6,1,6,0,2,6,2,0,5,0,0,0,0,0,0,0,2,0,0,3,3,7,2,0,6,2,3,2,0,2,0,0,0,3,0,7,0,3,3,0,0,0,0,0,7,1,2,0,0,3,1,0,0,0,5,0,0,6,0,0,0,3,0,3,5,1,0,0,0,1,0,0,0,0,5,0,0,7,0,0,0,0,0,0,0,0,0,0,0,0,0,0,0,0,0,0,0,0,0,0,0,0,0,0,0,0],"split_type":[0,0,0,0,0,0,0,0,0,0,0,0,0,0,0,0,0,0,0,0,0,0,0,0,0,0,0,0,0,0,0,0,0,0,0,0,0,0,0,0,0,0,0,0,0,0,0,0,0,0,0,0,0,0,0,0,0,0,0,0,0,0,0,0,0,0,0,0,0,0,0,0,0,0,0,0,0,0,0,0,0,0,0,0,0,0,0,0,0,0,0,0,0,0,0,0,0,0,0,0,0,0,0,0,0,0,0,0,0,0,0,0,0,0,0,0,0],"sum_hessian":[7.1157485E3,5.0565845E3,2.059164E3,3.9495786E3,1.1070056E3,4.1108084E2,1.6480833E3,3.6605095E3,2.8906906E2,7.4621484E2,3.6079077E2,4.0254956E2,8.53129E0,4.2839737E2,1.2196858E3,1.9856028E3,1.6749067E3,2.7719223E2,1.1876839E1,7.169542E2,2.9260654E1,3.274129E2,3.337787E1,3.583913E2,4.4158257E1,5.468669E0,3.0626216E0,3.488338E2,7.9563576E1,7.759142E2,1.2096886E3,1.5645337E3,1.1037303E2,7.887413E1,1.9831808E2,6.372298E2,7.972442E1,5.4495163E1,2.7291776E2,4.4964455E1,3.1342685E2,1.3607233E2,2.1276146E2,3.3605164E2,4.3986258E2,1.1599534E3,4.973532E1,4.47725E2,1.1168087E3,9.888935E1,1.1483678E1,6.78356E1,1.1038529E1,2.0964083E1,1.77354E2,5.5934406E2,7.788572E1,9.332908E0,7.039151E1,4.154963E0,5.03402E1,2.6949805E2,3.419716E0,1.8769952E2,1.25727325E2,4.3018976E2,9.67282E0,4.1411362E2,7.458397E2,4.657763E1,3.1576922E0,4.0321844E2,4.450657E1,1.06702E3,4.978875E1,2.4570242E1,7.431911E1,2.2692593E1,4.5143005E1,5.3219586E2,2.71482E1,1.6520948E1,6.1364773E1,5.2558637E0,4.0770445E0,4.4799175E1,5.541022E0,1.8380219E2,8.5695854E1,3.985408E2,3.1648943E1,6.7742834E2,6.841137E1,3.9224617E1,7.353013E0,3.953217E1,4.9744005E0,8.49015E2,2.1800493E2,4.6999207E1,2.7895458E0,2.233955E1,2.2306924E0,9.16089E0,6.515822E1,4.1887093E1,3.255914E0,3.238458E2,2.0835007E2,1.4698004E1,1.2450194E1,2.3858944E1,3.750583E1,4.1701477E1,3.0977004E0,8.116883E1,4.527028E0],"tree_param":{"num_deleted":"0","num_feature":"10","num_nodes":"117","size_leaf_vector":"1"}},{"base_weights":[3.3532153E-4,-3.9548817E-1,1.0230048E0,-5.598791E-1,9.680236E-1,8.628298E-1,1.7429772E-1,-8.286045E-1,1.5736876E-1,1.021083E0,-1.4821504E-1,6.4675385E-1,1.005032E0,-2.595985E-1,-1.0276192E0,8.4224E-1,2.8144114E-2,8.44561E-1,2.007433E-1,1.6237001E-1,4.363387E-1,7.87403E-1,1.5826496E-1,-7.800554E-1,7.97088E-2,-1.1183782E0,-4.0582004E-1,7.262342E-2,2.1042298E-1,9.679272E-2,-5.791925E-1,1.2319436E0,-8.559426E-1,2.3113437E-1,1.7321111E-1,2.2184888E-1,1.2485931E-1,-1.4929998E-1,2.1848594E-1,-1.5766868E-1,2.4688411E-1,-1.1513295E0,-3.6977747E-1,-9.0252805E-1,1.727886E-2,-0E0,1.7078716E-1,-1.2983239E-1,2.9121974E-1,-1.8151209E-1,1.6074213E-1,5.546413E-1,2.2654873E-1,-9.230349E-1,3.0920798E-2,-1.8833245E-1,1.3764286E-1,-0E0,9.932933E-2,2.9232642E-1,-8.4985614E-2,-2.830874E-1,3.2232445E-1,3.1294367E-1,-5.226021E-1,-1.7194341E-1,-9.534861E-1,-1.2440138E-1,-2.3636496E-2,-1.6394453E-1,-0E0,-3.061616E-1,3.170147E-1,-5.824819E-2,9.866085E-2,-2.2588995E-1,1.6348164E-1,2.5623453E-1,2.0093353E-1,6.0140774E-2,-7.2012556E-1,1.739071E-1,-1.659115E-1,-1.8305506E-1,-6.0607016E-1,-3.311866E-1,1.4922245E-1,-0E0,5.837963E-2,-3.3805948E-2,-1.2745498E-1,1.3412527E-2,1.1097654E-1,-0E0,5.489793E-2,-1.6667138E-1,2.326407E-2,-1.7110784E-1,-3.361501E-2,-3.6547013E-2,5.6088846E-2,-2.7993066E-2,4.4839505E-2,-7.061581E-2,-0E0,2.1120667E-2,1.8317989E-1,5.1765695E-2,-9.191498E-3,-6.212228E-2,-1.77006E-2,3.149135E-2,-7.4073663E-3,2.5244718E-2,8.516506E-2,-0E0,-1.4994816E-1,1.3975602E-1,-1.733853E-1,6.1369274E-2,-6.969541E-2],"categories":[],"categories_nodes":[],"categories_segments":[],"categories_sizes":[],"default_left":[0,0,0,0,0,0,0,0,0,0,0,0,0,0,0,0,0,0,0,0,0,0,0,0,0,0,0,0,0,0,0,0,0,0,0,0,0,0,0,0,0,0,0,0,0,0,0,0,0,0,0,0,0,0,0,0,0,0,0,0,0,0,0,0,0,0,0,0,0,0,0,0,0,0,0,0,0,0,0,0,0,0,0,0,0,0,0,0,0,0,0,0,0,0,0,0,0,0,0,0,0,0,0,0,0,0,0,0,0,0,0,0,0,0,0,0,0,0,0,0,0],"id":8,"left_children":[1,3,5,7,9,11,-1,13,15,17,-1,19,21,23,25,27,29,31,-1,-1,33,35,-1,37,39,41,43,45,-1,47,49,51,53,55,-1,57,-1,-1,59,61,63,65,67,69,71,73,-1,75,77,-1,79,81,-1,83,-1,85,-1,-1,-1,87,-1,89,91,93,95,-1,97,-1,99,-1,101,103,105,-1,107,109,111,113,-1,-1,115,-1,-1,-1,117,119,-1,-1,-1,-1,-1,-1,-1,-1,-1,-1,-1,-1,-1,-1,-1,-1,-1,-1,-1,-1,-1,-1,-1,-1,-1,-1,-1,-1,-1,-1,-1,-1,-1,-1,-1],"loss_changes":[2.7326829E3,1.0900083E3,4.4184814E1,8.384037E2,5.610962E1,2.5573853E1,0E0,3.551045E2,1.0292873E2,2.5413818E1,0E0,3.4174744E1,4.375E0,1.4683041E2,1.2845703E2,8.1144394E1,4.0758278E1,2.2922308E2,0E0,0E0,3.8575314E1,3.1732712E0,0E0,7.914935E1,1.995393E1,4.676587E1,6.533719E1,8.479719E0,0E0,4.0063507E1,5.0305637E1,5.426181E1,6.194607E0,6.6162445E1,0E0,2.750092E0,0E0,0E0,3.307762E0,1.2160813E1,1.4893398E1,1.9870605E0,1.3183087E1,2.8352043E1,1.5894515E1,3.5789034E0,0E0,1.1783808E1,1.4858883E1,0E0,9.862519E0,1.0005299E2,0E0,1.8025284E0,0E0,2.24577E1,0E0,0E0,0E0,2.5448976E0,0E0,2.6692562E0,2.1737466E0,4.940754E0,1.1140938E1,0E0,2.6146362E1,0E0,4.9678354E0,0E0,1.7799327E0,4.089585E0,1.1255177E1,0E0,3.049778E0,5.4415894E0,1.3952374E0,1.1453913E1,0E0,0E0,2.346367E0,0E0,0E0,0E0,3.4727592E1,1.36584E1,0E0,0E0,0E0,0E0,0E0,0E0,0E0,0E0,0E0,0E0,0E0,0E0,0E0,0E0,0E0,0E0,0E0,0E0,0E0,0E0,0E0,0E0,0E0,0E0,0E0,0E0,0E0,0E0,0E0,0E0,0E0,0E0,0E0,0E0,0E0],"parents":[2147483647,0,0,1,1,2,2,3,3,4,4,5,5,7,7,8,8,9,9,11,11,12,12,13,13,14,14,15,15,16,16,17,17,20,20,21,21,23,23,24,24,25,25,26,26,27,27,29,29,30,30,31,31,32,32,33,33,35,35,38,38,39,39,40,40,41,41,42,42,43,43,44,44,45,45,47,47,48,48,50,50,51,51,53,53,55,55,59,59,61,61,62,62,63,63,64,64,66,66,68,68,70,70,71,71,72,72,74,74,75,75,76,76,77,77,80,80,84,84,85,85],"right_children":[2,4,6,8,10,12,-1,14,16,18,-1,20,22,24,26,28,30,32,-1,-1,34,36,-1,38,40,42,44,46,-1,48,50,52,54,56,-1,58,-1,-1,60,62,64,66,68,70,72,74,-1,76,78,-1,80,82,-1,84,-1,86,-1,-1,-1,88,-1,90,92,94,96,-1,98,-1,100,-1,102,104,106,-1,108,110,112,114,-1,-1,116,-1,-1,-1,118,120,-1,-1,-1,-1,-1,-1,-1,-1,-1,-1,-1,-1,-1,-1,-1,-1,-1,-1,-1,-1,-1,-1,-1,-1,-1,-1,-1,-1,-1,-1,-1,-1,-1,-1,-1],"split_conditions":[1.35E2,2E0,2.978E1,3.002E1,1.31E2,1.45E2,1.7429772E-1,1E0,1E0,1.29E2,-1.4821504E-1,1E0,5E1,2.498E1,1E0,5E1,1E0,1.22E2,2.007433E-1,1.6237001E-1,1E0,2.331E1,1.5826496E-1,1.29E2,5.2E1,1E0,2.501E1,1E0,2.1042298E-1,5.3E1,1.23E2,1.2E2,3.351E1,2E0,1.7321111E-1,4.7E1,1.2485931E-1,-1.4929998E-1,1E0,1.21E2,1E0,1E0,2.515E1,1.29E2,5E1,1.11E2,1.7078716E-1,1.26E2,1E0,-1.8151209E-1,3.563E1,1.16E2,2.2654873E-1,1.23E2,3.0920798E-2,1E0,1.3764286E-1,-0E0,9.932933E-2,2.197E1,-8.4985614E-2,1E0,1E0,1.16E2,1.21E2,-1.7194341E-1,1.25E2,-1.2440138E-1,1.22E2,-1.6394453E-1,5.5E1,2.741E1,1E0,-5.824819E-2,3.269E1,4.5E1,3.933E1,3.621E1,2.0093353E-1,6.0140774E-2,4.8E1,1.739071E-1,-1.659115E-1,-1.8305506E-1,1.28E2,1.36E2,1.4922245E-1,-0E0,5.837963E-2,-3.3805948E-2,-1.2745498E-1,1.3412527E-2,1.1097654E-1,-0E0,5.489793E-2,-1.6667138E-1,2.326407E-2,-1.7110784E-1,-3.361501E-2,-3.6547013E-2,5.6088846E-2,-2.7993066E-2,4.4839505E-2,-7.061581E-2,-0E0,2.1120667E-2,1.8317989E-1,5.1765695E-2,-9.191498E-3,-6.212228E-2,-1.77006E-2,3.149135E-2,-7.4073663E-3,2.5244718E-2,8.516506E-2,-0E0,-1.4994816E-1,1.3975602E-1,-1.733853E-1,6.1369274E-2,-6.969541E-2],"split_indices":[2,4,9,9,2,2,0,8,8,2,0,8,0,9,6,0,4,2,0,0,6,9,0,2,0,7,9,6,0,0,2,2,9,4,0,0,0,0,4,2,4,4,9,2,0,2,0,2,6,0,9,2,0,2,0,7,0,0,0,9,0,4,4,2,2,0,2,0,2,0,0,9,7,0,9,0,9,9,0,0,0,0,0,0,2,2,0,0,0,0,0,0,0,0,0,0,0,0,0,0,0,0,0,0,0,0,0,0,0,0,0,0,0,0,0,0,0,0,0,0,0],"split_type":[0,0,0,0,0,0,0,0,0,0,0,0,0,0,0,0,0,0,0,0,0,0,0,0,0,0,0,0,0,0,0,0,0,0,0,0,0,0,0,0,0,0,0,0,0,0,0,0,0,0,0,0,0,0,0,0,0,0,0,0,0,0,0,0,0,0,0,0,0,0,0,0,0,0,0,0,0,0,0,0,0,0,0,0,0,0,0,0,0,0,0,0,0,0,0,0,0,0,0,0,0,0,0,0,0,0,0,0,0,0,0,0,0,0,0,0,0,0,0,0,0],"sum_hessian":[6.745257E3,4.8621973E3,1.8830592E3,4.3409893E3,5.2120825E2,9.621393E2,9.209199E2,3.159699E3,1.1812903E3,5.0913113E2,1.2077122E1,3.9004846E2,5.720908E2,8.2204224E2,2.3376567E3,1.8403024E2,9.972601E2,3.43637E2,1.6549414E2,1.18054695E2,2.7199377E2,1.535639E2,4.1852692E2,3.260554E2,4.9598688E2,2.0363076E3,3.0134912E2,8.194293E1,1.0208732E2,8.9980597E2,9.7454056E1,2.8109146E2,6.254553E1,2.1646649E2,5.5527275E1,1.9014719E1,1.3454918E2,2.651637E2,6.0891693E1,2.00165E2,2.958219E2,1.9473195E3,8.898811E1,1.400929E2,1.6125623E2,7.658611E1,5.35682E0,4.1105438E2,4.8875162E2,5.2585438E1,4.4868618E1,9.145466E1,1.896368E2,6.07216E1,1.8239307E0,1.3463284E2,8.183366E1,1.2061866E1,6.9528527E0,5.868704E1,2.2046568E0,1.6232372E2,3.784127E1,2.7544516E2,2.0376722E1,1.758172E3,1.8914742E2,3.4284023E1,5.470409E1,1.1388755E2,2.6205345E1,7.4417305E1,8.683893E1,1.7798176E1,5.8787937E1,3.1487317E2,9.618121E1,4.7661298E2,1.2138628E1,3.723105E1,7.6375723E0,6.768347E1,2.3771185E1,2.5210527E1,3.551107E1,1.2260796E2,1.202487E1,1.1415522E1,4.7271515E1,1.5350153E2,8.822202E0,2.8598177E1,9.243094E0,4.741879E1,2.2802638E2,1.1803895E1,8.572827E0,1.4372266E2,4.542475E1,3.857261E1,1.6131481E1,1.4472894E1,1.17324505E1,4.712083E1,2.729647E1,7.618224E1,1.0656684E1,2.6968557E1,3.1819382E1,1.0192668E2,2.1294649E2,8.5043205E1,1.1138007E1,3.8438498E2,9.222802E1,2.2097692E0,5.427803E0,8.434932E0,2.707614E1,1.7132544E1,1.05475426E2],"tree_param":{"num_deleted":"0","num_feature":"10","num_nodes":"121","size_leaf_vector":"1"}},{"base_weights":[-0E0,-3.637049E-1,9.6746844E-1,-5.070522E-1,1.1445794E-1,5.7456607E-1,1.071524E0,-1.2464432E-1,-6.1698234E-1,5.423784E-1,-1.2790369E-2,1.0638603E0,4.240379E-1,8.735493E-1,1.1419308E0,-4.1667503E-1,1.2829913E-1,-7.651419E-1,-4.5806465E-1,3.2533443E-1,1.0813336E0,-5.9253667E-2,5.819864E-1,6.0181204E-2,1.7155553E-1,3.3675504E-1,1.5441756E-1,1.7384653E-1,7.535667E-1,8.926428E-1,1.1767124E0,-6.447091E-1,-2.7501738E-1,7.854501E-2,2.1638434E-1,-1.3364318E-1,-6.695806E-1,-6.6955787E-1,-3.6693057E-1,2.656724E-1,1.5316565E-1,9.092105E-2,1.8835875E-1,-8.303213E-2,1.0761592E-1,-0E0,1.0445287E-1,3.7584043E-1,-1.0144063E-1,6.513334E-1,1.7137547E-1,1.6477343E-1,-1.0804974E0,4.3701506E-3,1.7412002E-1,-9.7182594E-2,-0E0,-3.12987E-1,5.844503E-2,4.6150986E-2,1.6911261E-1,-6.897619E-1,-1.8882419E-1,-1.1090813E-1,-5.119549E-1,-4.101745E-1,9.217306E-2,1.5012497E-1,7.835985E-2,-1.253196E-1,2.5347927E-1,2.3282592E-1,5.564179E-1,3.7567967E-1,1.1815743E-1,-2.9261175E-1,2.3149902E-2,-3.4691685E-1,1.9221272E-1,-2.097534E-2,3.3135873E-1,-1.1651349E-1,-6.1209923E-1,-3.4423983E-1,6.040247E-2,-4.2587358E-1,-1.4083894E-1,-4.2435968E-1,4.9205343E-3,-0E0,1.4398876E-1,-1.7317018E-1,2.1966714E-1,-1.0675246E-1,-1.365346E-1,1.4081208E-1,5.3083275E-2,1.8129548E-1,1.2070537E-1,-0E0,5.8753204E-1,2.404273E-1,1.2297475E-1,-8.016176E-2,-3.56713E-2,-0E0,1.2823457E-1,-3.6941826E-2,6.2725907E-3,-0E0,5.379837E-2,-9.436455E-2,-4.5867503E-2,-7.057276E-2,-0E0,-6.6129304E-2,-0E0,-6.959591E-2,-3.4458343E-2,-1.160568E-2,1.3870718E-1,-0E0,-6.270096E-2,4.9732808E-2,-0E0,-2.477245E-2,2.4815204E-3,-5.5306457E-2,4.895488E-2,3.606866E-3,4.172197E-2,-0E0,9.35848E-2,1.1908393E-1,6.678382E-3],"categories":[],"categories_nodes":[],"categories_segments":[],"categories_sizes":[],"default_left":[0,0,0,0,0,0,0,0,0,0,0,0,0,0,0,0,0,0,0,0,0,0,0,0,0,0,0,0,0,0,0,0,0,0,0,0,0,0,0,0,0,0,0,0,0,0,0,0,0,0,0,0,0,0,0,0,0,0,0,0,0,0,0,0,0,0,0,0,0,0,0,0,0,0,0,0,0,0,0,0,0,0,0,0,0,0,0,0,0,0,0,0,0,0,0,0,0,0,0,0,0,0,0,0,0,0,0,0,0,0,0,0,0,0,0,0,0,0,0,0,0,0,0,0,0,0,0,0,0,0,0,0,0,0,0],"id":9,"left_children":[1,3,5,7,9,11,13,15,17,19,21,23,25,27,29,31,33,35,37,39,41,43,45,-1,-1,47,-1,-1,49,51,53,55,57,59,-1,-1,61,63,65,67,-1,-1,-1,69,-1,-1,-1,71,-1,73,-1,-1,75,-1,-1,-1,-1,77,-1,79,-1,81,83,-1,85,87,89,91,-1,93,95,97,99,101,-1,-1,-1,103,105,107,109,-1,111,113,-1,115,-1,117,-1,119,-1,121,123,125,-1,-1,127,129,-1,-1,131,133,-1,-1,-1,-1,-1,-1,-1,-1,-1,-1,-1,-1,-1,-1,-1,-1,-1,-1,-1,-1,-1,-1,-1,-1,-1,-1,-1,-1,-1,-1,-1,-1,-1],"loss_changes":[2.2127227E3,3.140937E2,6.627014E1,1.4640973E2,5.832307E1,2.3521019E1,1.3692383E1,5.9083527E1,6.144275E1,2.5439278E1,2.1366768E1,1.9453354E0,1.2475651E1,8.794556E0,3.2185059E0,9.975708E0,2.5032362E1,1.5605896E1,2.3237091E1,4.7576237E0,1.5513763E0,1.3010182E1,3.7260532E0,0E0,0E0,9.946842E0,0E0,0E0,7.046402E0,6.1687134E1,6.342041E0,2.0734634E0,6.0285587E0,1.1816829E1,0E0,0E0,6.4584045E0,2.3333435E0,1.9251762E1,3.805087E0,0E0,0E0,0E0,1.0257525E1,0E0,0E0,0E0,4.711235E0,0E0,6.8444595E0,0E0,0E0,1.9297554E1,0E0,0E0,0E0,0E0,4.2787724E0,0E0,8.275246E0,0E0,3.25531E0,3.7941527E0,0E0,2.5533676E0,6.190384E0,7.926856E0,2.9489653E0,0E0,7.7044907E0,8.900497E0,2.311409E0,2.031187E0,3.1059837E0,0E0,0E0,0E0,2.7862854E0,1.930199E0,5.113217E0,1.4814978E0,0E0,2.3159027E0,1.452868E0,0E0,2.0449924E0,0E0,6.3500977E0,0E0,3.9372654E0,0E0,1.3368243E0,3.0680132E0,5.264888E0,0E0,0E0,7.745155E0,1.6373959E0,0E0,0E0,2.548462E0,6.3581734E0,0E0,0E0,0E0,0E0,0E0,0E0,0E0,0E0,0E0,0E0,0E0,0E0,0E0,0E0,0E0,0E0,0E0,0E0,0E0,0E0,0E0,0E0,0E0,0E0,0E0,0E0,0E0,0E0,0E0,0E0,0E0,0E0,0E0],"parents":[2147483647,0,0,1,1,2,2,3,3,4,4,5,5,6,6,7,7,8,8,9,9,10,10,11,11,12,12,13,13,14,14,15,15,16,16,17,17,18,18,19,19,20,20,21,21,22,22,25,25,28,28,29,29,30,30,31,31,32,32,33,33,36,36,37,37,38,38,39,39,43,43,47,47,49,49,52,52,57,57,59,59,61,61,62,62,64,64,65,65,66,66,67,67,69,69,70,70,71,71,72,72,73,73,77,77,78,78,79,79,80,80,82,82,83,83,85,85,87,87,89,89,91,91,92,92,93,93,96,96,97,97,100,100,101,101],"right_children":[2,4,6,8,10,12,14,16,18,20,22,24,26,28,30,32,34,36,38,40,42,44,46,-1,-1,48,-1,-1,50,52,54,56,58,60,-1,-1,62,64,66,68,-1,-1,-1,70,-1,-1,-1,72,-1,74,-1,-1,76,-1,-1,-1,-1,78,-1,80,-1,82,84,-1,86,88,90,92,-1,94,96,98,100,102,-1,-1,-1,104,106,108,110,-1,112,114,-1,116,-1,118,-1,120,-1,122,124,126,-1,-1,128,130,-1,-1,132,134,-1,-1,-1,-1,-1,-1,-1,-1,-1,-1,-1,-1,-1,-1,-1,-1,-1,-1,-1,-1,-1,-1,-1,-1,-1,-1,-1,-1,-1,-1,-1,-1,-1],"split_conditions":[1.35E2,1.25E2,8.4E1,1E0,1E0,1E0,5E1,5.2E1,5.3E1,9E1,1E0,4.8E1,1E0,1E0,9E1,4.4E1,9E1,1.17E2,8E1,1E0,5E1,9.6E1,4.4E1,6.0181204E-2,1.7155553E-1,8.1E1,1.5441756E-1,1.7384653E-1,1E0,8.7E1,1.37E2,1E0,8.4E1,1E0,2.1638434E-1,-1.3364318E-1,8.4E1,5.9E1,1E0,5.9E1,1.5316565E-1,9.092105E-2,1.8835875E-1,1E0,1.0761592E-1,-0E0,1.0445287E-1,1.49E2,-1.0144063E-1,1.41E2,1.7137547E-1,1.6477343E-1,8.9E1,4.3701506E-3,1.7412002E-1,-9.7182594E-2,-0E0,1E0,5.844503E-2,6.1E1,1.6911261E-1,4.6E1,1E0,-1.1090813E-1,7.6E1,1E0,1E0,7.3E1,7.835985E-2,1.33E2,1E0,1E0,6.9E1,9.6E1,1.1815743E-1,-2.9261175E-1,2.3149902E-2,7.5E1,1E0,1.16E2,6.1E1,-1.1651349E-1,1E0,5E1,6.040247E-2,1E0,-1.4083894E-1,6.1E1,4.9205343E-3,8.4E1,1.4398876E-1,5.1E1,1E0,8.5E1,-1.365346E-1,1.4081208E-1,5.1E1,5.5E1,1.2070537E-1,-0E0,4.5E1,8.6E1,1.2297475E-1,-8.016176E-2,-3.56713E-2,-0E0,1.2823457E-1,-3.6941826E-2,6.2725907E-3,-0E0,5.379837E-2,-9.436455E-2,-4.5867503E-2,-7.057276E-2,-0E0,-6.6129304E-2,-0E0,-6.959591E-2,-3.4458343E-2,-1.160568E-2,1.3870718E-1,-0E0,-6.270096E-2,4.9732808E-2,-0E0,-2.477245E-2,2.4815204E-3,-5.5306457E-2,4.895488E-2,3.606866E-3,4.172197E-2,-0E0,9.35848E-2,1.1908393E-1,6.678382E-3],"split_indices":[2,2,3,8,8,8,0,0,0,3,7,0,6,8,3,0,3,2,3,7,0,3,0,0,0,3,0,0,6,3,2,7,3,6,0,0,3,0,6,0,0,0,0,6,0,0,0,2,0,2,0,0,3,0,0,0,0,6,0,0,0,0,6,0,3,7,7,3,0,2,1,7,3,3,0,0,0,3,7,2,3,0,6,0,0,7,0,0,0,3,0,0,1,3,0,0,0,0,0,0,0,3,0,0,0,0,0,0,0,0,0,0,0,0,0,0,0,0,0,0,0,0,0,0,0,0,0,0,0,0,0,0,0,0,0],"split_type":[0,0,0,0,0,0,0,0,0,0,0,0,0,0,0,0,0,0,0,0,0,0,0,0,0,0,0,0,0,0,0,0,0,0,0,0,0,0,0,0,0,0,0,0,0,0,0,0,0,0,0,0,0,0,0,0,0,0,0,0,0,0,0,0,0,0,0,0,0,0,0,0,0,0,0,0,0,0,0,0,0,0,0,0,0,0,0,0,0,0,0,0,0,0,0,0,0,0,0,0,0,0,0,0,0,0,0,0,0,0,0,0,0,0,0,0,0,0,0,0,0,0,0,0,0,0,0,0,0,0,0,0,0,0,0],"sum_hessian":[6.285852E3,4.5689473E3,1.7169047E3,3.5182312E3,1.0507162E3,3.6511053E2,1.3517942E3,7.901102E2,2.7281208E3,2.4342032E2,8.072959E2,8.1081825E1,2.840287E2,3.662501E2,9.8554407E2,3.699291E2,4.2018112E2,1.403052E3,1.325069E3,1.7753116E2,6.588916E1,7.5287683E2,5.4419106E1,1.4564776E1,6.651705E1,2.5374231E2,3.0286392E1,9.45488E1,2.717013E2,1.3157948E2,8.5396454E2,1.3478676E2,2.3514235E2,4.078556E2,1.2325545E1,5.4532745E2,8.577245E2,3.902223E2,9.348467E2,1.6798013E2,9.551021E0,2.4457926E1,4.1431236E1,7.344002E2,1.8476574E1,1.1026831E1,4.3392273E1,2.470293E2,6.713005E0,2.2416978E2,4.7531506E1,1.1924177E2,1.2337719E1,8.3254795E0,8.456391E2,1.3260696E2,2.1798E0,2.259554E2,9.18696E0,3.9892126E2,8.934323E0,8.187578E2,3.8966682E1,2.4176038E2,1.4846193E2,8.583764E2,7.647026E1,1.2379964E2,4.4180492E1,6.58256E2,7.614427E1,1.454632E2,1.0156611E2,8.616925E1,1.3800053E2,7.5779057E0,4.759813E0,2.1571751E2,1.0237874E1,3.1830927E2,8.0612E1,3.3511798E2,4.836398E2,3.395284E1,5.013843E0,1.3017734E2,1.828459E1,8.360967E2,2.227974E1,6.877514E1,7.695122E0,1.662225E1,1.0717739E2,6.471458E2,1.11101675E1,1.3656302E1,6.2487965E1,1.3829645E2,7.166747E0,4.715925E0,9.685018E1,7.13698E1,1.4799458E1,6.5822014E1,1.4989551E2,8.387783E0,1.8500913E0,7.4733116E1,2.4357614E2,3.8420835E0,7.676991E1,4.3183652E2,5.180328E1,2.311156E1,1.0841277E1,1.2639431E2,3.783025E0,6.5334985E2,1.8274683E2,6.607028E1,2.7048614E0,7.58805E0,9.0342E0,7.113167E1,3.6045723E1,4.4139713E2,2.0574867E2,2.1752048E1,4.0735916E1,6.2904545E1,7.53919E1,8.432702E0,8.841748E1,1.4633091E1,5.6736702E1],"tree_param":{"num_deleted":"0","num_feature":"10","num_nodes":"135","size_leaf_vector":"1"}},{"base_weights":[3.873844E-3,-3.125742E-1,8.1749487E-1,-5.609118E-1,2.909351E-1,5.761292E-1,1.053676E0,-6.493751E-1,3.284697E-1,8.3162975E-1,1.8834929E-1,4.2553794E-1,1.0071989E0,1.2335833E-1,1.6607285E-1,-2.2118507E-1,-8.04566E-1,3.874541E-1,-1.2972662E-1,1.1588372E-1,1.9092862E-1,7.017775E-2,3.903785E-1,9.731472E-1,2.2552568E-1,1.0060152E-1,1.6650827E-1,-7.525696E-1,9.560833E-2,-8.9111805E-1,-2.477881E-1,-1.1016073E-2,5.627517E-1,1.3491905E-2,1.4836776E-1,-0E0,3.053054E-1,4.07609E-1,-4.0008686E-2,3.6985427E-1,1.5474498E-1,7.684644E-2,1.037185E0,-8.0229557E-1,-0E0,-3.726526E-2,3.2264632E-1,-9.5784426E-1,-6.759266E-1,-6.8723196E-1,1.0999927E-1,2.2294007E-1,-9.5349216E-1,1.6928513E-2,9.052696E-2,-1.3547469E-2,2.5881663E-1,-1.3623679E-1,7.150079E-2,-0E0,4.0848258E-1,3.8065746E-1,1.5812682E-1,-3.2499686E-3,8.618009E-2,-7.8035756E-3,7.2512454E-1,-0E0,1.5767668E-1,-1.2065166E-1,-0E0,-6.342548E-2,4.514221E-2,-1.6592872E-1,8.019527E-2,4.42184E-1,5.0761048E-2,-1.437855E-1,-5.6549805E-1,-7.1425927E-1,-2.4548331E-2,-7.589385E-1,-1.8252507E-2,-1.2246816E-1,4.9670067E-2,-7.0042345E-3,4.2105466E-1,-1.561228E-1,-0E0,6.9176435E-2,-0E0,1.0544275E-2,-1.9264264E-1,4.606581E-2,1.028435E-1,-1.4505747E-1,7.472083E-2,6.3309744E-2,-0E0,2.4100232E-1,7.260368E-2,-3.3668026E-1,1.6245519E-1,-5.833339E-1,1.3526718E-1,-4.061128E-2,-4.9510994E-3,-3.6282092E-2,2.430091E-2,4.1921973E-2,1.04050785E-1,-4.0270682E-2,2.3306098E-2,-9.4187036E-2,-0E0,-1.3568966E-1,-9.295628E-2,-1.1696709E-1,-0E0,-4.9713824E-2,8.306153E-3,-0E0,8.170204E-2,-5.3683E-2,-4.5957197E-3,-3.7384585E-2,1.31523935E-2,-6.570804E-2,-0E0,2.198963E-2,7.400194E-2,4.416986E-2,-6.178931E-2,8.728212E-3,5.681189E-2,-0E0,-1.7424369E-1],"categories":[],"categories_nodes":[],"categories_segments":[],"categories_sizes":[],"default_left":[0,0,0,0,0,0,0,0,0,0,0,0,0,0,0,0,0,0,0,0,0,0,0,0,0,0,0,0,0,0,0,0,0,0,0,0,0,0,0,0,0,0,0,0,0,0,0,0,0,0,0,0,0,0,0,0,0,0,0,0,0,0,0,0,0,0,0,0,0,0,0,0,0,0,0,0,0,0,0,0,0,0,0,0,0,0,0,0,0,0,0,0,0,0,0,0,0,0,0,0,0,0,0,0,0,0,0,0,0,0,0,0,0,0,0,0,0,0,0,0,0,0,0,0,0,0,0,0,0,0,0,0,0,0,0,0,0],"id":10,"left_children":[1,3,5,7,9,11,13,15,17,19,21,23,25,-1,-1,27,29,31,-1,33,-1,35,37,39,41,-1,-1,43,45,47,49,51,53,55,-1,57,59,61,-1,63,-1,65,67,69,71,73,75,77,79,81,83,85,87,-1,-1,-1,89,91,93,95,97,99,-1,-1,-1,101,103,-1,-1,-1,-1,-1,-1,105,107,109,111,-1,113,115,-1,117,-1,119,-1,-1,121,-1,-1,-1,-1,-1,123,125,-1,127,-1,-1,-1,129,-1,131,133,135,-1,-1,-1,-1,-1,-1,-1,-1,-1,-1,-1,-1,-1,-1,-1,-1,-1,-1,-1,-1,-1,-1,-1,-1,-1,-1,-1,-1,-1,-1,-1,-1,-1],"loss_changes":[1.5427026E3,6.4660736E2,9.175391E1,2.4131744E2,6.742E1,5.1005585E1,8.876587E0,1.8263293E2,1.9132717E1,6.3011597E1,2.4359108E1,6.592922E1,4.154892E0,0E0,0E0,1.26795044E2,9.571521E1,1.9587769E1,0E0,5.387654E0,0E0,1.116279E1,4.7935524E0,4.731781E0,5.3550053E1,0E0,0E0,1.1704529E1,1.4617146E1,2.1286743E1,4.5075596E1,1.9051754E1,2.985344E0,2.3192294E0,0E0,5.096386E0,4.3685226E0,3.4699745E0,0E0,3.1702623E0,0E0,2.3046188E1,2.966591E0,4.58284E0,2.2049456E0,4.5572014E0,4.777132E0,7.415161E0,6.4748383E0,3.31876E0,8.55605E0,4.1006336E0,1.7441807E0,0E0,0E0,0E0,1.8764287E0,2.3667762E0,3.9873917E0,3.7861643E0,1.7857056E0,4.2670326E0,0E0,0E0,0E0,1.9857113E1,1.3687105E1,0E0,0E0,0E0,0E0,0E0,0E0,1.5245886E0,3.9152222E0,2.739912E0,1.9531034E0,0E0,3.2513027E0,2.951889E0,0E0,2.8654213E0,0E0,3.3647552E0,0E0,0E0,2.695653E0,0E0,0E0,0E0,0E0,0E0,3.3803248E0,4.071398E0,0E0,1.6077472E0,0E0,0E0,0E0,2.8402843E0,0E0,6.9708014E0,4.3205094E0,3.6682134E0,0E0,0E0,0E0,0E0,0E0,0E0,0E0,0E0,0E0,0E0,0E0,0E0,0E0,0E0,0E0,0E0,0E0,0E0,0E0,0E0,0E0,0E0,0E0,0E0,0E0,0E0,0E0,0E0,0E0,0E0,0E0,0E0,0E0],"parents":[2147483647,0,0,1,1,2,2,3,3,4,4,5,5,6,6,7,7,8,8,9,9,10,10,11,11,12,12,15,15,16,16,17,17,19,19,21,21,22,22,23,23,24,24,27,27,28,28,29,29,30,30,31,31,32,32,33,33,35,35,36,36,37,37,39,39,41,41,42,42,43,43,44,44,45,45,46,46,47,47,48,48,49,49,50,50,51,51,52,52,56,56,57,57,58,58,59,59,60,60,61,61,65,65,66,66,73,73,74,74,75,75,76,76,78,78,79,79,81,81,83,83,86,86,92,92,93,93,95,95,99,99,101,101,102,102,103,103],"right_children":[2,4,6,8,10,12,14,16,18,20,22,24,26,-1,-1,28,30,32,-1,34,-1,36,38,40,42,-1,-1,44,46,48,50,52,54,56,-1,58,60,62,-1,64,-1,66,68,70,72,74,76,78,80,82,84,86,88,-1,-1,-1,90,92,94,96,98,100,-1,-1,-1,102,104,-1,-1,-1,-1,-1,-1,106,108,110,112,-1,114,116,-1,118,-1,120,-1,-1,122,-1,-1,-1,-1,-1,124,126,-1,128,-1,-1,-1,130,-1,132,134,136,-1,-1,-1,-1,-1,-1,-1,-1,-1,-1,-1,-1,-1,-1,-1,-1,-1,-1,-1,-1,-1,-1,-1,-1,-1,-1,-1,-1,-1,-1,-1,-1,-1],"split_conditions":[8.5E1,3.002E1,2.94E1,2E0,1E0,9.1E1,5E1,1E0,8.1E1,5E1,5.7E1,1E0,5E1,1.2335833E-1,1.6607285E-1,2.498E1,1E0,8E1,-1.2972662E-1,1E0,1.9092862E-1,1E0,8.2E1,4.5E1,1E0,1.0060152E-1,1.6650827E-1,1E0,5.6E1,2.71E1,2.501E1,7.5E1,4.9E1,4.7E1,1.4836776E-1,3.193E1,4.6E1,1E0,-4.0008686E-2,2.36E1,1.5474498E-1,2E0,2.055E1,6.4E1,4.6E1,2.701E1,2.794E1,6.3E1,1E0,6E1,5.1E1,5.3E1,7.7E1,1.6928513E-2,9.052696E-2,-1.3547469E-2,4.9E1,3.02E1,1E0,3.448E1,8.1E1,3.287E1,1.5812682E-1,-3.2499686E-3,8.618009E-2,5.1E1,8.9E1,-0E0,1.5767668E-1,-1.2065166E-1,-0E0,-6.342548E-2,4.514221E-2,5E1,4.3E1,2.695E1,5.7E1,-1.437855E-1,2.644E1,7.1E1,-2.4548331E-2,1E0,-1.8252507E-2,2.705E1,4.9670067E-2,-7.0042345E-3,1E0,-1.561228E-1,-0E0,6.9176435E-2,-0E0,1.0544275E-2,3.086E1,4.3E1,1.028435E-1,3.105E1,7.472083E-2,6.3309744E-2,-0E0,6.3E1,7.260368E-2,8.7E1,2.768E1,8.6E1,1.3526718E-1,-4.061128E-2,-4.9510994E-3,-3.6282092E-2,2.430091E-2,4.1921973E-2,1.04050785E-1,-4.0270682E-2,2.3306098E-2,-9.4187036E-2,-0E0,-1.3568966E-1,-9.295628E-2,-1.1696709E-1,-0E0,-4.9713824E-2,8.306153E-3,-0E0,8.170204E-2,-5.3683E-2,-4.5957197E-3,-3.7384585E-2,1.31523935E-2,-6.570804E-2,-0E0,2.198963E-2,7.400194E-2,4.416986E-2,-6.178931E-2,8.728212E-3,5.681189E-2,-0E0,-1.7424369E-1],"split_indices":[3,9,9,5,8,3,0,8,3,0,0,8,0,0,0,9,6,3,0,6,0,1,3,0,6,0,0,5,0,9,9,3,0,0,0,9,0,6,0,9,0,5,9,0,0,9,9,0,5,0,0,0,3,0,0,0,0,9,6,9,3,9,0,0,0,0,3,0,0,0,0,0,0,0,0,9,0,0,9,3,0,5,0,9,0,0,8,0,0,0,0,0,9,0,0,9,0,0,0,0,0,3,9,3,0,0,0,0,0,0,0,0,0,0,0,0,0,0,0,0,0,0,0,0,0,0,0,0,0,0,0,0,0,0,0,0,0],"split_type":[0,0,0,0,0,0,0,0,0,0,0,0,0,0,0,0,0,0,0,0,0,0,0,0,0,0,0,0,0,0,0,0,0,0,0,0,0,0,0,0,0,0,0,0,0,0,0,0,0,0,0,0,0,0,0,0,0,0,0,0,0,0,0,0,0,0,0,0,0,0,0,0,0,0,0,0,0,0,0,0,0,0,0,0,0,0,0,0,0,0,0,0,0,0,0,0,0,0,0,0,0,0,0,0,0,0,0,0,0,0,0,0,0,0,0,0,0,0,0,0,0,0,0,0,0,0,0,0,0,0,0,0,0,0,0,0,0],"sum_hessian":[5.9855127E3,4.3082393E3,1.6772736E3,3.0546174E3,1.2536217E3,8.357229E2,8.415506E2,2.7805725E3,2.740448E2,1.9548297E2,1.0581388E3,6.245324E2,2.1119052E2,2.3388596E2,6.076647E2,7.4383075E2,2.0367417E3,2.6366318E2,1.0381616E1,7.9590034E1,1.1589294E2,6.7477356E2,3.833652E2,1.6319243E2,4.6133997E2,6.6167244E1,1.4502327E2,2.7948456E2,4.6434622E2,1.7590475E3,2.7769434E2,7.750801E1,1.8615517E2,7.449906E1,5.0909715E0,5.205355E2,1.5423802E2,3.7698538E2,6.379819E0,2.2893368E1,1.4029906E2,3.9309222E2,6.824775E1,2.6394873E2,1.553583E1,2.8814816E2,1.7619807E2,1.3325231E3,4.2652435E2,1.26561844E2,1.5113248E2,6.1192345E1,1.6315668E1,2.424869E1,1.6190648E2,4.7041534E1,2.7457531E1,1.7890442E2,3.4163113E2,4.2441605E1,1.1179641E2,3.6705835E2,9.9270315E0,5.3487573E0,1.7544611E1,3.4611093E2,4.6981285E1,2.0690455E0,6.61787E1,2.5844977E2,5.498946E0,4.229332E0,1.1306498E1,1.4520029E2,1.4294788E2,1.1686514E2,5.933293E1,1.2576215E3,7.490164E1,3.9260864E2,3.3915703E1,1.0880553E2,1.775632E1,7.091826E1,8.0214226E1,2.2097172E1,3.9095173E1,1.4426249E1,1.8894194E0,1.5882286E1,1.1575245E1,3.0709896E1,1.4819452E2,3.3260825E2,9.022878E0,3.1733624E1,1.0707983E1,1.0985709E2,1.9393164E0,1.7418047E2,1.928779E2,1.2155757E2,2.2455338E2,4.503807E0,4.2477478E1,7.02896E1,7.491068E1,2.4334831E1,1.1861304E2,7.9798E1,3.706715E1,9.810889E0,4.952204E1,6.5861084E1,9.040565E0,9.938947E1,2.9321918E2,1.0319661E2,5.6089177E0,3.657556E1,3.4342693E1,8.520706E0,3.0574469E1,6.494246E1,8.325207E1,3.56087E1,2.9699954E2,1.0259077E1,2.1474546E1,1.3624602E2,3.793444E1,1.1086689E1,1.1047089E2,1.6092982E2,6.3623543E1,1.7477665E0,2.7560406E0],"tree_param":{"num_deleted":"0","num_feature":"10","num_nodes":"137","size_leaf_vector":"1"}},{"base_weights":[3.1089652E-3,-1.3082457E-1,9.556352E-1,2.349341E-1,-2.526289E-1,1.7462914E-1,9.034559E-1,-2.4433216E-2,3.7674946E-1,-3.106258E-1,1.7622748E-1,1.7434731E-1,1.254684E-1,-1.12524375E-1,6.110424E-2,3.175656E-1,1.7091334E-1,-3.423096E-1,3.2827368E-1,-9.958835E-2,3.9611173E-1,-3.0488503E-1,1.4485651E-2,2.908815E-1,1.5934387E-1,-4.6196076E-1,-1.7612003E-1,-0E0,6.60659E-2,-3.3856783E-2,4.5803335E-1,2.6001966E-1,1.7345801E-1,-3.421014E-1,-0E0,-1.4415903E-2,5.723206E-2,3.445742E-2,7.556127E-2,-4.963289E-1,-2.6747277E-2,-2.0203735E-1,1.3364993E-1,-1.9852731E-2,4.1795794E-2,1.276836E-1,-0E0,7.0531684E-1,1.1946755E-1,-5.3873453E-2,7.672786E-3,9.005347E-3,-2.132313E-2,-7.0975864E-1,-4.481968E-1,-3.7343603E-2,-7.329853E-2,2.9411716E-2,-3.1340294E-2,3.7911057E-2,1.404229E-1,9.2454115E-3,5.9096236E-2,-1.1346849E-1,-0E0,-7.235782E-2,-5.5958968E-2,-2.5308107E-3,-2.4978237E-2],"categories":[],"categories_nodes":[],"categories_segments":[],"categories_sizes":[],"default_left":[0,0,0,0,0,0,0,0,0,0,0,0,0,0,0,0,0,0,0,0,0,0,0,0,0,0,0,0,0,0,0,0,0,0,0,0,0,0,0,0,0,0,0,0,0,0,0,0,0,0,0,0,0,0,0,0,0,0,0,0,0,0,0,0,0,0,0,0,0],"id":11,"left_children":[1,3,5,7,9,-1,11,13,15,17,19,-1,-1,21,-1,23,-1,25,27,29,31,33,35,37,-1,39,41,43,-1,-1,45,47,-1,49,-1,51,-1,-1,-1,53,-1,55,57,-1,-1,-1,-1,59,61,-1,-1,-1,-1,63,65,-1,67,-1,-1,-1,-1,-1,-1,-1,-1,-1,-1,-1,-1],"loss_changes":[7.290175E2,2.2273541E2,3.1723022E0,4.6494156E1,9.368431E1,0E0,2.952179E0,1.640066E1,3.4376472E1,6.7183624E1,2.754897E1,0E0,0E0,9.571497E0,0E0,1.2432045E1,0E0,6.144574E1,6.357872E0,1.3850254E1,